{"learner":{"attributes":{"scikit_learn":"{\"_estimator_type\": \"classifier\"}"},"feature_names":["W_rsi","W_macd","Wy_trend","B_bbpos","S_struct","WHL_vol"],"feature_types":["float","float","float","float","float","float"],"gradient_booster":{"model":{"cats":{"enc":[],"feature_segments":[],"sorted_idx":[]},"gbtree_model_param":{"num_parallel_tree":"1","num_trees":"50"},"iteration_indptr":[0,1,2,3,4,5,6,7,8,9,10,11,12,13,14,15,16,17,18,19,20,21,22,23,24,25,26,27,28,29,30,31,32,33,34,35,36,37,38,39,40,41,42,43,44,45,46,47,48,49,50],"tree_info":[0,0,0,0,0,0,0,0,0,0,0,0,0,0,0,0,0,0,0,0,0,0,0,0,0,0,0,0,0,0,0,0,0,0,0,0,0,0,0,0,0,0,0,0,0,0,0,0,0,0],"trees":[{"base_weights":[-0E0,-1.761491E-1,7.8350955E-1,-2.1315968E-2,-5.97674E-1,6.814385E-2,3.4385692E-2,-1.00936286E-1,9.144679E-1,-2.3443619E-2,-1.0966713E0,2.4764227E-2,-2.7358133E-1,6.379772E-2,2.5860367E-2,-5.823322E-2,-3.5410497E-2,4.849481E-2,-7.065199E-3,-1.1712116E-2,-1.6803276E-2],"categories":[],"categories_nodes":[],"categories_segments":[],"categories_sizes":[],"default_left":[0,0,0,0,0,0,0,0,0,0,0,0,0,0,0,0,0,0,0,0,0],"id":0,"left_children":[1,3,5,7,9,-1,-1,11,13,-1,15,17,19,-1,-1,-1,-1,-1,-1,-1,-1],"loss_changes":[2.3086689E1,8.88135E0,1.5078678E0,7.424835E0,2.2225552E0,0E0,0E0,2.0176182E0,9.6557856E-1,0E0,1.812172E-2,8.432572E0,5.9704304E-2,0E0,0E0,0E0,0E0,0E0,0E0,0E0,0E0],"parents":[2147483647,0,0,1,1,2,2,3,3,4,4,7,7,8,8,10,10,11,11,12,12],"right_children":[2,4,6,8,10,-1,-1,12,14,-1,16,18,20,-1,-1,-1,-1,-1,-1,-1,-1],"split_conditions":[5E-1,1E0,6E-1,1E0,5E-1,6.814385E-2,3.4385692E-2,8E-1,8E-1,-2.3443619E-2,1E0,6E-1,6E-1,6.379772E-2,2.5860367E-2,-5.823322E-2,-3.5410497E-2,4.849481E-2,-7.065199E-3,-1.1712116E-2,-1.6803276E-2],"split_indices":[2,0,1,5,3,0,0,0,0,0,5,1,1,0,0,0,0,0,0,0,0],"split_type":[0,0,0,0,0,0,0,0,0,0,0,0,0,0,0,0,0,0,0,0,0],"sum_hessian":[1.6707733E2,1.3647293E2,3.0604397E1,9.9974365E1,3.6498577E1,4.0805864E0,2.652381E1,9.226659E1,7.707774E0,2.9244202E1,7.2543755E0,5.327432E1,3.8992268E1,3.853887E0,3.853887E0,5.8941803E0,1.3601954E0,7.934473E0,4.5339848E1,2.4710217E1,1.4282052E1],"tree_param":{"num_deleted":"0","num_feature":"6","num_nodes":"21","size_leaf_vector":"1"}},{"base_weights":[-0E0,-1.6795091E-1,7.360168E-1,-2.020174E-2,-5.7366496E-1,6.3547686E-2,3.233283E-2,-9.610195E-2,8.586354E-1,-2.2441909E-2,-1.0617098E0,2.349102E-2,-2.611569E-1,5.957194E-2,2.441018E-2,-5.6415286E-2,-3.4120917E-2,4.5437973E-2,-6.7276354E-3,-1.1169969E-2,-1.6053697E-2],"categories":[],"categories_nodes":[],"categories_segments":[],"categories_sizes":[],"default_left":[0,0,0,0,0,0,0,0,0,0,0,0,0,0,0,0,0,0,0,0,0],"id":1,"left_children":[1,3,5,7,9,-1,-1,11,13,-1,15,17,19,-1,-1,-1,-1,-1,-1,-1,-1],"loss_changes":[2.0666664E1,8.133059E0,1.306591E0,6.6424756E0,2.086008E0,0E0,0E0,1.8328547E0,8.329892E-1,0E0,1.5117645E-2,7.520813E0,5.3673983E-2,0E0,0E0,0E0,0E0,0E0,0E0,0E0,0E0],"parents":[2147483647,0,0,1,1,2,2,3,3,4,4,7,7,8,8,10,10,11,11,12,12],"right_children":[2,4,6,8,10,-1,-1,12,14,-1,16,18,20,-1,-1,-1,-1,-1,-1,-1,-1],"split_conditions":[5E-1,1E0,6E-1,1E0,5E-1,6.3547686E-2,3.233283E-2,8E-1,8E-1,-2.2441909E-2,1E0,6E-1,6E-1,5.957194E-2,2.441018E-2,-5.6415286E-2,-3.4120917E-2,4.5437973E-2,-6.7276354E-3,-1.1169969E-2,-1.6053697E-2],"split_indices":[2,0,1,5,3,0,0,0,0,0,5,1,1,0,0,0,0,0,0,0,0],"split_type":[0,0,0,0,0,0,0,0,0,0,0,0,0,0,0,0,0,0,0,0,0],"sum_hessian":[1.6705093E2,1.3609248E2,3.0958464E1,9.992936E1,3.616312E1,4.161954E0,2.679651E1,9.211948E1,7.809881E0,2.9032036E1,7.131085E0,5.3290154E1,3.8829323E1,3.9260375E0,3.8838434E0,5.785896E0,1.3451891E0,8.048505E0,4.524165E1,2.4621256E1,1.4208066E1],"tree_param":{"num_deleted":"0","num_feature":"6","num_nodes":"21","size_leaf_vector":"1"}},{"base_weights":[-0E0,-1.6015497E-1,6.9238746E-1,-1.9141931E-2,-5.506682E-1,5.9454005E-2,3.0436823E-2,-9.1502E-2,8.0769306E-1,-2.148129E-2,-1.0286382E0,2.229058E-2,-2.4927169E-1,5.5787504E-2,2.3057554E-2,-5.4702144E-2,-3.2883283E-2,4.265462E-2,-6.4056586E-3,-1.0651729E-2,-1.5335816E-2],"categories":[],"categories_nodes":[],"categories_segments":[],"categories_sizes":[],"default_left":[0,0,0,0,0,0,0,0,0,0,0,0,0,0,0,0,0,0,0,0,0],"id":2,"left_children":[1,3,5,7,9,-1,-1,11,13,-1,15,17,19,-1,-1,-1,-1,-1,-1,-1,-1],"loss_changes":[1.8523434E1,7.4483547E0,1.1412468E0,5.9525704E0,1.9615288E0,0E0,0E0,1.6647959E0,7.236433E-1,0E0,1.2851238E-2,6.7193413E0,4.8185587E-2,0E0,0E0,0E0,0E0,0E0,0E0,0E0,0E0],"parents":[2147483647,0,0,1,1,2,2,3,3,4,4,7,7,8,8,10,10,11,11,12,12],"right_children":[2,4,6,8,10,-1,-1,12,14,-1,16,18,20,-1,-1,-1,-1,-1,-1,-1,-1],"split_conditions":[5E-1,1E0,6E-1,1E0,5E-1,5.9454005E-2,3.0436823E-2,8E-1,8E-1,-2.148129E-2,1E0,6E-1,6E-1,5.5787504E-2,2.3057554E-2,-5.4702144E-2,-3.2883283E-2,4.265462E-2,-6.4056586E-3,-1.0651729E-2,-1.5335816E-2],"split_indices":[2,0,1,5,3,0,0,0,0,0,5,1,1,0,0,0,0,0,0,0,0],"split_type":[0,0,0,0,0,0,0,0,0,0,0,0,0,0,0,0,0,0,0,0,0],"sum_hessian":[1.6696848E2,1.3569525E2,3.1273226E1,9.986667E1,3.582859E1,4.231104E0,2.7042122E1,9.1967575E1,7.899094E0,2.8823696E1,7.0048933E0,5.3296223E1,3.8671352E1,3.987857E0,3.9112368E0,5.674715E0,1.3301783E0,8.148836E0,4.5147385E1,2.4535295E1,1.4136058E1],"tree_param":{"num_deleted":"0","num_feature":"6","num_nodes":"21","size_leaf_vector":"1"}},{"base_weights":[-0E0,2.989033E-1,-3.354311E-1,9.820542E-1,1.7895111E-1,-2.628689E-1,-7.962056E-1,4.0641844E-2,6.901871E-2,-4.532139E-2,2.8680569E-2,-1.5357155E-1,-2.0559756E-2,-1.9085797E-2,-9.972376E-1,-1.2197193E-1,5.5587556E-2,-2.2038263E-1,2.141475E-2,-5.3081054E-2,-3.1693947E-2,-8.155531E-3,4.6227783E-2,-8.479758E-3,-1.4648283E-2],"categories":[],"categories_nodes":[],"categories_segments":[],"categories_sizes":[],"default_left":[0,0,0,0,0,0,0,0,0,0,0,0,0,0,0,0,0,0,0,0,0,0,0,0,0],"id":3,"left_children":[1,3,5,7,9,11,13,-1,-1,15,-1,17,-1,-1,19,21,-1,23,-1,-1,-1,-1,-1,-1,-1],"loss_changes":[1.6748817E1,7.1578927E0,2.5596428E0,6.6110516E-1,6.6914883E0,1.072586E0,7.7401686E-1,0E0,0E0,4.2220097E0,0E0,1.5413394E0,0E0,0E0,1.1148453E-2,1.9211409E0,0E0,1.03615165E-1,0E0,0E0,0E0,0E0,0E0,0E0,0E0],"parents":[2147483647,0,0,1,1,2,2,3,3,4,4,5,5,6,6,9,9,11,11,14,14,15,15,17,17],"right_children":[2,4,6,8,10,12,14,-1,-1,16,-1,18,-1,-1,20,22,-1,24,-1,-1,-1,-1,-1,-1,-1],"split_conditions":[8E-1,6E-1,5E-1,5E-1,5E-1,1E0,1E0,4.0641844E-2,6.901871E-2,1E0,2.8680569E-2,1E0,-2.0559756E-2,-1.9085797E-2,1E0,5E-1,5.5587556E-2,6E-1,2.141475E-2,-5.3081054E-2,-3.1693947E-2,-8.155531E-3,4.6227783E-2,-8.479758E-3,-1.4648283E-2],"split_indices":[0,1,3,2,2,0,0,0,0,5,0,5,0,0,5,3,0,1,0,0,0,0,0,0,0],"split_type":[0,0,0,0,0,0,0,0,0,0,0,0,0,0,0,0,0,0,0,0,0,0,0,0,0],"sum_hessian":[1.6683841E2,8.817235E1,7.866605E1,1.2999896E1,7.5172455E1,6.819272E1,1.047334E1,9.4253435E0,3.5745525E0,4.7909103E1,2.7263348E1,3.9573074E1,2.861964E1,3.5965455E0,6.8767943E0,4.5056965E1,2.8521385E0,3.563002E1,3.943055E0,5.5615664E0,1.3152276E0,4.3479973E1,1.5769938E0,2.156393E1,1.4066089E1],"tree_param":{"num_deleted":"0","num_feature":"6","num_nodes":"25","size_leaf_vector":"1"}},{"base_weights":[-0E0,2.833092E-1,-3.2088086E-1,9.2396265E-1,1.6981332E-1,-2.5095403E-1,-7.6917315E-1,3.8265925E-2,6.4763114E-2,-4.284634E-2,2.7049547E-2,-1.463057E-1,-1.967552E-2,-1.8268904E-2,-9.673205E-1,-1.1598558E-1,5.229667E-2,-2.1026239E-1,2.0255802E-2,-5.154115E-2,-3.0549714E-2,-7.769177E-3,4.3460403E-2,-8.080099E-3,-1.3989823E-2],"categories":[],"categories_nodes":[],"categories_segments":[],"categories_sizes":[],"default_left":[0,0,0,0,0,0,0,0,0,0,0,0,0,0,0,0,0,0,0,0,0,0,0,0,0],"id":4,"left_children":[1,3,5,7,9,11,13,-1,-1,15,-1,17,-1,-1,19,21,-1,23,-1,-1,-1,-1,-1,-1,-1],"loss_changes":[1.517096E1,6.368471E0,2.384573E0,5.776224E-1,5.980095E0,9.8153543E-1,7.3190975E-1,0E0,0E0,3.7842286E0,0E0,1.3942618E0,0E0,0E0,9.872913E-3,1.7270842E0,0E0,9.3875766E-2,0E0,0E0,0E0,0E0,0E0,0E0,0E0],"parents":[2147483647,0,0,1,1,2,2,3,3,4,4,5,5,6,6,9,9,11,11,14,14,15,15,17,17],"right_children":[2,4,6,8,10,12,14,-1,-1,16,-1,18,-1,-1,20,22,-1,24,-1,-1,-1,-1,-1,-1,-1],"split_conditions":[8E-1,6E-1,5E-1,5E-1,5E-1,1E0,1E0,3.8265925E-2,6.4763114E-2,1E0,2.7049547E-2,1E0,-1.967552E-2,-1.8268904E-2,1E0,5E-1,5.229667E-2,6E-1,2.0255802E-2,-5.154115E-2,-3.0549714E-2,-7.769177E-3,4.3460403E-2,-8.080099E-3,-1.3989823E-2],"split_indices":[0,1,3,2,2,0,0,0,0,5,0,5,0,0,5,3,0,1,0,0,0,0,0,0,0],"split_type":[0,0,0,0,0,0,0,0,0,0,0,0,0,0,0,0,0,0,0,0,0,0,0,0,0],"sum_hessian":[1.6666486E2,8.845336E1,7.821149E1,1.3138041E1,7.531532E1,6.78893E1,1.032219E1,9.513861E0,3.62418E0,4.7852707E1,2.7462614E1,3.946906E1,2.842024E1,3.5745401E0,6.7476506E0,4.496728E1,2.8854258E0,3.55037E1,3.965356E0,5.447257E0,1.3003932E0,4.3367973E1,1.5993088E0,2.1505491E1,1.3998209E1],"tree_param":{"num_deleted":"0","num_feature":"6","num_nodes":"25","size_leaf_vector":"1"}},{"base_weights":[-0E0,2.6868084E-1,-3.0695042E-1,8.708401E-1,1.6119954E-1,-2.3955874E-1,-7.432425E-1,3.6075022E-2,6.0947455E-2,-4.0500276E-2,5.1062554E-1,-1.3937518E-1,-1.8826894E-2,-1.7485186E-2,-9.3872577E-1,-1.1028547E-1,4.929931E-2,2.737003E-2,4.377455E-1,-2.0058776E-1,1.9169051E-2,-5.0073087E-2,-2.9447768E-2,-7.400419E-3,4.0925E-2,7.714814E-3,2.4230836E-2,-7.6985075E-3,-1.33592365E-2],"categories":[],"categories_nodes":[],"categories_segments":[],"categories_sizes":[],"default_left":[0,0,0,0,0,0,0,0,0,0,0,0,0,0,0,0,0,0,0,0,0,0,0,0,0,0,0,0,0],"id":5,"left_children":[1,3,5,7,9,11,13,-1,-1,15,17,19,-1,-1,21,23,-1,-1,25,27,-1,-1,-1,-1,-1,-1,-1,-1,-1],"loss_changes":[1.374595E1,5.6808915E0,2.222466E0,5.092983E-1,5.3491974E0,8.979161E-1,6.9292164E-1,0E0,0E0,3.3978076E0,1.1343956E-3,1.2614825E0,0E0,0E0,8.916378E-3,1.5545129E0,0E0,0E0,9.6874714E-2,8.498478E-2,0E0,0E0,0E0,0E0,0E0,0E0,0E0,0E0,0E0],"parents":[2147483647,0,0,1,1,2,2,3,3,4,4,5,5,6,6,9,9,10,10,11,11,14,14,15,15,18,18,19,19],"right_children":[2,4,6,8,10,12,14,-1,-1,16,18,20,-1,-1,22,24,-1,-1,26,28,-1,-1,-1,-1,-1,-1,-1,-1,-1],"split_conditions":[8E-1,6E-1,5E-1,5E-1,5E-1,1E0,1E0,3.6075022E-2,6.0947455E-2,1E0,1E0,1E0,-1.8826894E-2,-1.7485186E-2,1E0,5E-1,4.929931E-2,2.737003E-2,5E-1,6E-1,1.9169051E-2,-5.0073087E-2,-2.9447768E-2,-7.400419E-3,4.0925E-2,7.714814E-3,2.4230836E-2,-7.6985075E-3,-1.33592365E-2],"split_indices":[0,1,3,2,2,0,0,0,0,5,5,5,0,0,5,3,0,0,3,1,0,0,0,0,0,0,0,0,0],"split_type":[0,0,0,0,0,0,0,0,0,0,0,0,0,0,0,0,0,0,0,0,0,0,0,0,0,0,0,0,0],"sum_hessian":[1.664541E2,8.868949E1,7.77646E1,1.3254775E1,7.543472E1,6.759333E1,1.0171268E1,9.591075E0,3.6637003E0,4.7792614E1,2.7642103E1,3.936754E1,2.8225794E1,3.5530615E0,6.618207E0,4.487947E1,2.9131439E0,1.748304E1,1.0159064E1,3.5381756E1,3.985782E0,5.3324842E0,1.2857227E0,4.3260338E1,1.6191341E0,1.6538011E0,8.505262E0,2.1449312E1,1.3932446E1],"tree_param":{"num_deleted":"0","num_feature":"6","num_nodes":"29","size_leaf_vector":"1"}},{"base_weights":[-0E0,2.5503492E-1,-2.936098E-1,8.220259E-1,1.5318565E-1,-2.2865988E-1,-7.183206E-1,3.40476E-2,5.7499673E-2,-3.827581E-2,2.4131741E-2,-1.327644E-1,-1.801236E-2,-1.6733212E-2,-9.1131485E-1,-1.0485758E-1,4.6554293E-2,-1.9134013E-1,1.8148704E-2,-4.8668835E-2,-2.8385622E-2,-7.0484914E-3,3.8592428E-2,-7.3342123E-3,-1.2755394E-2],"categories":[],"categories_nodes":[],"categories_segments":[],"categories_sizes":[],"default_left":[0,0,0,0,0,0,0,0,0,0,0,0,0,0,0,0,0,0,0,0,0,0,0,0,0],"id":6,"left_children":[1,3,5,7,9,11,13,-1,-1,15,-1,17,-1,-1,19,21,-1,23,-1,-1,-1,-1,-1,-1,-1],"loss_changes":[1.2462448E1,5.077262E0,2.0720277E0,4.525633E-1,4.794655E0,8.2112765E-1,6.566143E-1,0E0,0E0,3.0554638E0,0E0,1.1415602E0,0E0,0E0,8.195877E-3,1.4006637E0,0E0,7.687163E-2,0E0,0E0,0E0,0E0,0E0,0E0,0E0],"parents":[2147483647,0,0,1,1,2,2,3,3,4,4,5,5,6,6,9,9,11,11,14,14,15,15,17,17],"right_children":[2,4,6,8,10,12,14,-1,-1,16,-1,18,-1,-1,20,22,-1,24,-1,-1,-1,-1,-1,-1,-1],"split_conditions":[8E-1,6E-1,5E-1,5E-1,5E-1,1E0,1E0,3.40476E-2,5.7499673E-2,1E0,2.4131741E-2,1E0,-1.801236E-2,-1.6733212E-2,1E0,5E-1,4.6554293E-2,6E-1,1.8148704E-2,-4.8668835E-2,-2.8385622E-2,-7.0484914E-3,3.8592428E-2,-7.3342123E-3,-1.2755394E-2],"split_indices":[0,1,3,2,2,0,0,0,0,5,0,5,0,0,5,3,0,1,0,0,0,0,0,0,0],"split_type":[0,0,0,0,0,0,0,0,0,0,0,0,0,0,0,0,0,0,0,0,0,0,0,0,0],"sum_hessian":[1.6621045E2,8.888402E1,7.732642E1,1.3352598E1,7.5531425E1,6.730518E1,1.0021238E1,9.658231E0,3.694368E0,4.772965E1,2.7801773E1,3.9268658E1,2.8036528E1,3.5321345E0,6.489104E0,4.47937E1,2.9359457E0,3.5264156E1,4.0044994E0,5.2178473E0,1.2712566E0,4.3156982E1,1.6367195E0,2.1395344E1,1.3868814E1],"tree_param":{"num_deleted":"0","num_feature":"6","num_nodes":"25","size_leaf_vector":"1"}},{"base_weights":[-0E0,2.4209373E-1,-2.808313E-1,7.7697873E-1,1.4550143E-1,-2.1823572E-1,-6.9432694E-1,3.2165635E-2,5.4362882E-2,-3.6166474E-2,4.5614237E-1,-1.2645857E-1,-1.7230501E-2,-1.6011657E-2,-8.8496804E-1,-9.9689126E-2,4.4028133E-2,2.4514016E-2,3.8833246E-1,-1.8250169E-1,1.7189603E-2,-4.7321457E-2,-2.736107E-2,-6.712686E-3,3.643844E-2,6.1656097E-3,2.159621E-2,-6.9864816E-3,-1.2177197E-2],"categories":[],"categories_nodes":[],"categories_segments":[],"categories_sizes":[],"default_left":[0,0,0,0,0,0,0,0,0,0,0,0,0,0,0,0,0,0,0,0,0,0,0,0,0,0,0,0,0],"id":7,"left_children":[1,3,5,7,9,11,13,-1,-1,15,17,19,-1,-1,21,23,-1,-1,25,27,-1,-1,-1,-1,-1,-1,-1,-1,-1],"loss_changes":[1.1297307E1,4.5483575E0,1.9321542E0,4.048214E-1,4.2953453E0,7.506242E-1,6.2262774E-1,0E0,0E0,2.7512076E0,1.9574165E-3,1.0332096E0,0E0,0E0,7.6441765E-3,1.2632087E0,0E0,0E0,8.663583E-2,6.946981E-2,0E0,0E0,0E0,0E0,0E0,0E0,0E0,0E0,0E0],"parents":[2147483647,0,0,1,1,2,2,3,3,4,4,5,5,6,6,9,9,10,10,11,11,14,14,15,15,18,18,19,19],"right_children":[2,4,6,8,10,12,14,-1,-1,16,18,20,-1,-1,22,24,-1,-1,26,28,-1,-1,-1,-1,-1,-1,-1,-1,-1],"split_conditions":[8E-1,6E-1,5E-1,5E-1,5E-1,1E0,1E0,3.2165635E-2,5.4362882E-2,1E0,1E0,1E0,-1.7230501E-2,-1.6011657E-2,1E0,5E-1,4.4028133E-2,2.4514016E-2,5E-1,6E-1,1.7189603E-2,-4.7321457E-2,-2.736107E-2,-6.712686E-3,3.643844E-2,6.1656097E-3,2.159621E-2,-6.9864816E-3,-1.2177197E-2],"split_indices":[0,1,3,2,2,0,0,0,0,5,5,5,0,0,5,3,0,0,3,1,0,0,0,0,0,0,0,0,0],"split_type":[0,0,0,0,0,0,0,0,0,0,0,0,0,0,0,0,0,0,0,0,0,0,0,0,0,0,0,0,0],"sum_hessian":[1.6594362E2,8.9045815E1,7.6897804E1,1.343374E1,7.5612076E1,6.702513E1,9.87267E0,9.716442E0,3.7172973E0,4.7664497E1,2.7947578E1,3.917251E1,2.7852627E1,3.5117788E0,6.3608913E0,4.4710083E1,2.9544158E0,1.76843E1,1.0263279E1,3.5150845E1,4.0216603E0,5.1038623E0,1.2570288E0,4.305779E1,1.6522921E0,1.6657956E0,8.597483E0,2.1343529E1,1.3807317E1],"tree_param":{"num_deleted":"0","num_feature":"6","num_nodes":"29","size_leaf_vector":"1"}},{"base_weights":[-0E0,2.2999305E-1,-2.6858962E-1,7.352493E-1,1.3834535E-1,-2.0826586E-1,-6.7119175E-1,3.0413827E-2,5.1491614E-2,-3.416578E-2,2.158275E-2,-1.204441E-1,-1.6479995E-2,-1.5319283E-2,-8.5958153E-1,-9.4767466E-2,4.1693266E-2,-1.7405577E-1,1.6287128E-2,-4.602493E-2,-2.637215E-2,-6.3922936E-3,3.444272E-2,-6.6546253E-3,-1.1623636E-2],"categories":[],"categories_nodes":[],"categories_segments":[],"categories_sizes":[],"default_left":[0,0,0,0,0,0,0,0,0,0,0,0,0,0,0,0,0,0,0,0,0,0,0,0,0],"id":8,"left_children":[1,3,5,7,9,11,13,-1,-1,15,-1,17,-1,-1,19,21,-1,23,-1,-1,-1,-1,-1,-1,-1],"loss_changes":[1.0246822E1,4.0800724E0,1.8018923E0,3.641534E-1,3.855487E0,6.859019E-1,5.9066725E-1,0E0,0E0,2.4800484E0,0E0,9.3528306E-1,0E0,0E0,7.2078705E-3,1.1401668E0,0E0,6.272006E-2,0E0,0E0,0E0,0E0,0E0,0E0,0E0],"parents":[2147483647,0,0,1,1,2,2,3,3,4,4,5,5,6,6,9,9,11,11,14,14,15,15,17,17],"right_children":[2,4,6,8,10,12,14,-1,-1,16,-1,18,-1,-1,20,22,-1,24,-1,-1,-1,-1,-1,-1,-1],"split_conditions":[8E-1,6E-1,5E-1,5E-1,5E-1,1E0,1E0,3.0413827E-2,5.1491614E-2,1E0,2.158275E-2,1E0,-1.6479995E-2,-1.5319283E-2,1E0,5E-1,4.1693266E-2,6E-1,1.6287128E-2,-4.602493E-2,-2.637215E-2,-6.3922936E-3,3.444272E-2,-6.6546253E-3,-1.1623636E-2],"split_indices":[0,1,3,2,2,0,0,0,0,5,0,5,0,0,5,3,0,1,0,0,0,0,0,0,0],"split_type":[0,0,0,0,0,0,0,0,0,0,0,0,0,0,0,0,0,0,0,0,0,0,0,0,0],"sum_hessian":[1.656543E2,8.917488E1,7.6479416E1,1.3500183E1,7.56747E1,6.6753365E1,9.726046E0,9.7667055E0,3.733477E0,4.759778E1,2.8076918E1,3.9079163E1,2.7674204E1,3.4920092E0,6.234036E0,4.4628704E1,2.9690735E0,3.5041763E1,4.037401E0,4.9909678E0,1.2430682E0,4.2962646E1,1.6660562E0,2.1293814E1,1.3747949E1],"tree_param":{"num_deleted":"0","num_feature":"6","num_nodes":"25","size_leaf_vector":"1"}},{"base_weights":[-0E0,2.1848299E-1,-2.5686073E-1,6.9646215E-1,1.3146684E-1,-1.9873072E-1,-6.4885443E-1,2.8779138E-2,4.8849102E-2,-3.2267917E-2,4.083867E-1,-1.14707366E-1,-1.57596E-2,-1.4654907E-2,-8.3506566E-1,-9.008093E-2,3.952686E-2,2.2009779E-2,3.4505305E-1,-1.6598564E-1,1.5437116E-2,-4.4774037E-2,-2.5417123E-2,-6.086649E-3,3.2588083E-2,4.825907E-3,1.9286329E-2,-6.3379365E-3,-1.1093724E-2],"categories":[],"categories_nodes":[],"categories_segments":[],"categories_sizes":[],"default_left":[0,0,0,0,0,0,0,0,0,0,0,0,0,0,0,0,0,0,0,0,0,0,0,0,0,0,0,0,0],"id":9,"left_children":[1,3,5,7,9,11,13,-1,-1,15,17,19,-1,-1,21,23,-1,-1,25,27,-1,-1,-1,-1,-1,-1,-1,-1,-1],"loss_changes":[9.292112E0,3.666893E0,1.6804223E0,3.2912254E-1,3.4581528E0,6.265044E-1,5.604925E-1,0E0,0E0,2.2378037E0,2.5515556E-3,8.4674954E-1,0E0,0E0,6.8454742E-3,1.0298433E0,0E0,0E0,7.778299E-2,5.656886E-2,0E0,0E0,0E0,0E0,0E0,0E0,0E0,0E0,0E0],"parents":[2147483647,0,0,1,1,2,2,3,3,4,4,5,5,6,6,9,9,10,10,11,11,14,14,15,15,18,18,19,19],"right_children":[2,4,6,8,10,12,14,-1,-1,16,18,20,-1,-1,22,24,-1,-1,26,28,-1,-1,-1,-1,-1,-1,-1,-1,-1],"split_conditions":[8E-1,6E-1,5E-1,5E-1,5E-1,1E0,1E0,2.8779138E-2,4.8849102E-2,1E0,1E0,1E0,-1.57596E-2,-1.4654907E-2,1E0,5E-1,3.952686E-2,2.2009779E-2,5E-1,6E-1,1.5437116E-2,-4.4774037E-2,-2.5417123E-2,-6.086649E-3,3.2588083E-2,4.825907E-3,1.9286329E-2,-6.3379365E-3,-1.1093724E-2],"split_indices":[0,1,3,2,2,0,0,0,0,5,5,5,0,0,5,3,0,0,3,1,0,0,0,0,0,0,0,0,0],"split_type":[0,0,0,0,0,0,0,0,0,0,0,0,0,0,0,0,0,0,0,0,0,0,0,0,0,0,0,0,0],"sum_hessian":[1.6535086E2,8.927907E1,7.607179E1,1.3553698E1,7.5725365E1,6.649003E1,9.581769E0,9.809912E0,3.7437859E0,4.753002E1,2.8195345E1,3.8988678E1,2.7501345E1,3.4728353E0,6.108934E0,4.4549637E1,2.9803853E0,1.784721E1,1.0348135E1,3.4936832E1,4.0518494E0,4.879536E0,1.2293979E0,4.287144E1,1.6781964E0,1.6756581E0,8.672477E0,2.1246141E1,1.3690688E1],"tree_param":{"num_deleted":"0","num_feature":"6","num_nodes":"29","size_leaf_vector":"1"}},{"base_weights":[-0E0,2.0770162E-1,-2.4562281E-1,6.6030127E-1,1.250577E-1,-1.896122E-1,-6.2726265E-1,2.725037E-2,4.6405297E-2,-3.0467467E-2,1.934184E-2,-1.09236084E-1,-1.50681725E-2,-1.4017442E-2,-8.113428E-1,-8.5618444E-2,3.7509825E-2,-1.58276E-1,1.4635846E-2,-4.3564253E-2,-2.4494417E-2,-5.795114E-3,3.0859945E-2,-6.035786E-3,-1.058652E-2],"categories":[],"categories_nodes":[],"categories_segments":[],"categories_sizes":[],"default_left":[0,0,0,0,0,0,0,0,0,0,0,0,0,0,0,0,0,0,0,0,0,0,0,0,0],"id":10,"left_children":[1,3,5,7,9,11,13,-1,-1,15,-1,17,-1,-1,19,21,-1,23,-1,-1,-1,-1,-1,-1,-1],"loss_changes":[8.430767E0,3.2986014E0,1.567028E0,2.9863834E-1,3.1075737E0,5.720093E-1,5.319047E-1,0E0,0E0,2.0209336E0,0E0,7.6669043E-1,0E0,0E0,6.5259933E-3,9.3077946E-1,0E0,5.0964892E-2,0E0,0E0,0E0,0E0,0E0,0E0,0E0],"parents":[2147483647,0,0,1,1,2,2,3,3,4,4,5,5,6,6,9,9,11,11,14,14,15,15,17,17],"right_children":[2,4,6,8,10,12,14,-1,-1,16,-1,18,-1,-1,20,22,-1,24,-1,-1,-1,-1,-1,-1,-1],"split_conditions":[8E-1,6E-1,5E-1,5E-1,5E-1,1E0,1E0,2.725037E-2,4.6405297E-2,1E0,1.934184E-2,1E0,-1.50681725E-2,-1.4017442E-2,1E0,5E-1,3.7509825E-2,6E-1,1.4635846E-2,-4.3564253E-2,-2.4494417E-2,-5.795114E-3,3.0859945E-2,-6.035786E-3,-1.058652E-2],"split_indices":[0,1,3,2,2,0,0,0,0,5,0,5,0,0,5,3,0,1,0,0,0,0,0,0,0],"split_type":[0,0,0,0,0,0,0,0,0,0,0,0,0,0,0,0,0,0,0,0,0,0,0,0,0],"sum_hessian":[1.6503294E2,8.93576E1,7.5675354E1,1.35958605E1,7.5761734E1,6.6235176E1,9.440177E0,9.846857E0,3.7490032E0,4.74617E1,2.8300034E1,3.8901077E1,2.7334095E1,3.4542618E0,5.9859157E0,4.4472935E1,2.9887652E0,3.4835964E1,4.065116E0,4.769879E0,1.2160368E0,4.2784058E1,1.68888E0,2.1200449E1,1.3635514E1],"tree_param":{"num_deleted":"0","num_feature":"6","num_nodes":"25","size_leaf_vector":"1"}},{"base_weights":[-0E0,1.974208E-1,-2.3485494E-1,6.264986E-1,1.1888344E-1,-1.808926E-1,-6.063705E-1,2.581787E-2,4.4135492E-2,-2.8759245E-2,3.6628956E-1,-1.0401811E-1,-1.4404595E-2,-1.3405842E-2,-7.8834534E-1,-8.136937E-2,3.562607E-2,1.9800654E-2,3.0695865E-1,-1.5091161E-1,1.3879919E-2,-4.2391643E-2,-2.3602618E-2,-5.5170725E-3,2.92458E-2,3.6659793E-3,1.725017E-2,-5.7475306E-3,-1.0101129E-2],"categories":[],"categories_nodes":[],"categories_segments":[],"categories_sizes":[],"default_left":[0,0,0,0,0,0,0,0,0,0,0,0,0,0,0,0,0,0,0,0,0,0,0,0,0,0,0,0,0],"id":11,"left_children":[1,3,5,7,9,11,13,-1,-1,15,17,19,-1,-1,21,23,-1,-1,25,27,-1,-1,-1,-1,-1,-1,-1,-1,-1],"loss_changes":[7.647238E0,2.9719007E0,1.4610834E0,2.7186584E-1,2.789996E0,5.220287E-1,5.047395E-1,0E0,0E0,1.8264215E0,2.9492378E-3,6.9427675E-1,0E0,0E0,6.222725E-3,8.417123E-1,0E0,0E0,7.003951E-2,4.586345E-2,0E0,0E0,0E0,0E0,0E0,0E0,0E0,0E0,0E0],"parents":[2147483647,0,0,1,1,2,2,3,3,4,4,5,5,6,6,9,9,10,10,11,11,14,14,15,15,18,18,19,19],"right_children":[2,4,6,8,10,12,14,-1,-1,16,18,20,-1,-1,22,24,-1,-1,26,28,-1,-1,-1,-1,-1,-1,-1,-1,-1],"split_conditions":[8E-1,6E-1,5E-1,5E-1,5E-1,1E0,1E0,2.581787E-2,4.4135492E-2,1E0,1E0,1E0,-1.4404595E-2,-1.3405842E-2,1E0,5E-1,3.562607E-2,1.9800654E-2,5E-1,6E-1,1.3879919E-2,-4.2391643E-2,-2.3602618E-2,-5.5170725E-3,2.92458E-2,3.6659793E-3,1.725017E-2,-5.7475306E-3,-1.0101129E-2],"split_indices":[0,1,3,2,2,0,0,0,0,5,5,5,0,0,5,3,0,0,3,1,0,0,0,0,0,0,0,0,0],"split_type":[0,0,0,0,0,0,0,0,0,0,0,0,0,0,0,0,0,0,0,0,0,0,0,0,0,0,0,0,0],"sum_hessian":[1.6470789E2,8.9417496E1,7.529039E1,1.3628078E1,7.578942E1,6.598884E1,9.301549E0,9.878258E0,3.7498217E0,4.739321E1,2.839621E1,3.881638E1,2.7172459E1,3.436291E0,5.8652577E0,4.439863E1,2.9945831E0,1.7978947E1,1.0417262E1,3.4739075E1,4.0773053E0,4.6622577E0,1.203E0,4.270037E1,1.6982573E0,1.6837897E0,8.733473E0,2.1156677E1,1.3582397E1],"tree_param":{"num_deleted":"0","num_feature":"6","num_nodes":"29","size_leaf_vector":"1"}},{"base_weights":[-0E0,1.8777874E-1,-2.2453764E-1,5.948244E-1,1.131295E-1,-1.725554E-1,-5.86138E-1,2.447319E-2,4.201908E-2,-2.7138928E-2,3.4723377E-1,-9.904211E-2,-1.3767834E-2,-1.2819104E-2,-7.6601464E-1,-7.732425E-2,3.3861965E-2,1.8754197E-2,2.9129148E-1,-1.4387819E-1,1.3166286E-2,-4.1252773E-2,-2.2740463E-2,-5.2519627E-3,2.7734866E-2,3.490552E-3,1.6349297E-2,-5.4725762E-3,-9.636692E-3],"categories":[],"categories_nodes":[],"categories_segments":[],"categories_sizes":[],"default_left":[0,0,0,0,0,0,0,0,0,0,0,0,0,0,0,0,0,0,0,0,0,0,0,0,0,0,0,0,0],"id":12,"left_children":[1,3,5,7,9,11,13,-1,-1,15,17,19,-1,-1,21,23,-1,-1,25,27,-1,-1,-1,-1,-1,-1,-1,-1,-1],"loss_changes":[6.9400167E0,2.679132E0,1.3620322E0,2.481556E-1,2.5094976E0,4.7620606E-1,4.7886324E-1,0E0,0E0,1.6516848E0,2.8419495E-4,6.287676E-1,0E0,0E0,5.918026E-3,7.615434E-1,0E0,0E0,6.1232567E-2,4.1221917E-2,0E0,0E0,0E0,0E0,0E0,0E0,0E0,0E0,0E0],"parents":[2147483647,0,0,1,1,2,2,3,3,4,4,5,5,6,6,9,9,10,10,11,11,14,14,15,15,18,18,19,19],"right_children":[2,4,6,8,10,12,14,-1,-1,16,18,20,-1,-1,22,24,-1,-1,26,28,-1,-1,-1,-1,-1,-1,-1,-1,-1],"split_conditions":[8E-1,6E-1,5E-1,5E-1,5E-1,1E0,1E0,2.447319E-2,4.201908E-2,1E0,1E0,1E0,-1.3767834E-2,-1.2819104E-2,1E0,5E-1,3.3861965E-2,1.8754197E-2,5E-1,6E-1,1.3166286E-2,-4.1252773E-2,-2.2740463E-2,-5.2519627E-3,2.7734866E-2,3.490552E-3,1.6349297E-2,-5.4725762E-3,-9.636692E-3],"split_indices":[0,1,3,2,2,0,0,0,0,5,5,5,0,0,5,3,0,0,3,1,0,0,0,0,0,0,0,0,0],"split_type":[0,0,0,0,0,0,0,0,0,0,0,0,0,0,0,0,0,0,0,0,0,0,0,0,0,0,0,0,0],"sum_hessian":[1.6437445E2,8.945736E1,7.491709E1,1.3651602E1,7.5805756E1,6.5750984E1,9.166107E0,9.904746E0,3.7468557E0,4.7324894E1,2.8480862E1,3.8734577E1,2.701641E1,3.418922E0,5.7471848E0,4.4326725E1,2.99817E0,1.8037071E1,1.044379E1,3.4646065E1,4.088511E0,4.5568857E0,1.1902992E0,4.2620262E1,1.7064645E0,1.6849855E0,8.758804E0,2.1114767E1,1.3531298E1],"tree_param":{"num_deleted":"0","num_feature":"6","num_nodes":"29","size_leaf_vector":"1"}},{"base_weights":[-0E0,1.7864843E-1,-2.1465272E-1,5.650819E-1,1.0767197E-1,-1.6458489E-1,-5.665307E-1,2.3209004E-2,4.0038876E-2,-2.5601259E-2,1.6464097E-2,-9.4297394E-2,-1.3156908E-2,-1.2256305E-2,-7.443004E-1,-7.347269E-2,3.2205842E-2,-1.37162E-1,1.249213E-2,-4.0144693E-2,-2.1906791E-2,-4.999175E-3,2.6317796E-2,-5.21035E-3,-9.192391E-3],"categories":[],"categories_nodes":[],"categories_segments":[],"categories_sizes":[],"default_left":[0,0,0,0,0,0,0,0,0,0,0,0,0,0,0,0,0,0,0,0,0,0,0,0,0],"id":13,"left_children":[1,3,5,7,9,11,13,-1,-1,15,-1,17,-1,-1,19,21,-1,23,-1,-1,-1,-1,-1,-1,-1],"loss_changes":[6.2988343E0,2.4172919E0,1.2693846E0,2.2700262E-1,2.2581217E0,4.3421137E-1,4.5416594E-1,0E0,0E0,1.4944847E0,0E0,5.69494E-1,0E0,0E0,5.5963993E-3,6.8931E-1,0E0,3.7002027E-2,0E0,0E0,0E0,0E0,0E0,0E0,0E0],"parents":[2147483647,0,0,1,1,2,2,3,3,4,4,5,5,6,6,9,9,11,11,14,14,15,15,17,17],"right_children":[2,4,6,8,10,12,14,-1,-1,16,-1,18,-1,-1,20,22,-1,24,-1,-1,-1,-1,-1,-1,-1],"split_conditions":[8E-1,6E-1,5E-1,5E-1,5E-1,1E0,1E0,2.3209004E-2,4.0038876E-2,1E0,1.6464097E-2,1E0,-1.3156908E-2,-1.2256305E-2,1E0,5E-1,3.2205842E-2,6E-1,1.249213E-2,-4.0144693E-2,-2.1906791E-2,-4.999175E-3,2.6317796E-2,-5.21035E-3,-9.192391E-3],"split_indices":[0,1,3,2,2,0,0,0,0,5,0,5,0,0,5,3,0,1,0,0,0,0,0,0,0],"split_type":[0,0,0,0,0,0,0,0,0,0,0,0,0,0,0,0,0,0,0,0,0,0,0,0,0],"sum_hessian":[1.6403714E2,8.948153E1,7.45556E1,1.3667546E1,7.581398E1,6.5521576E1,9.034029E0,9.926896E0,3.7406502E0,4.7257053E1,2.8556927E1,3.865565E1,2.6865925E1,3.4021509E0,5.6318784E0,4.4257236E1,2.9998188E0,3.455683E1,4.0988183E0,4.4539356E0,1.1779428E0,4.254361E1,1.713624E0,2.1074656E1,1.3482177E1],"tree_param":{"num_deleted":"0","num_feature":"6","num_nodes":"25","size_leaf_vector":"1"}},{"base_weights":[-0E0,1.6991432E-1,-2.0518261E-1,5.371002E-1,1.02397725E-1,-1.5696579E-1,-5.4751796E-1,2.2018807E-2,3.8180355E-2,-2.4142595E-2,3.1208807E-1,-8.977342E-2,-1.2570863E-2,-1.1716531E-2,-7.231587E-1,-6.98063E-2,3.0647693E-2,1.6909461E-2,2.595072E-1,-1.307496E-1,1.1854917E-2,-3.9064817E-2,-2.1100536E-2,-4.758201E-3,2.4986448E-2,2.5379357E-3,1.4648737E-2,-4.9602925E-3,-8.767414E-3],"categories":[],"categories_nodes":[],"categories_segments":[],"categories_sizes":[],"default_left":[0,0,0,0,0,0,0,0,0,0,0,0,0,0,0,0,0,0,0,0,0,0,0,0,0,0,0,0,0],"id":14,"left_children":[1,3,5,7,9,11,13,-1,-1,15,17,19,-1,-1,21,23,-1,-1,25,27,-1,-1,-1,-1,-1,-1,-1,-1,-1],"loss_changes":[5.714936E0,2.183667E0,1.1826999E0,2.0800686E-1,2.029561E0,3.9574218E-1,4.3055606E-1,0E0,0E0,1.3528891E0,7.646084E-4,5.158551E-1,0E0,0E0,5.2490234E-3,6.241709E-1,0E0,0E0,5.5345953E-2,3.316796E-2,0E0,0E0,0E0,0E0,0E0,0E0,0E0,0E0,0E0],"parents":[2147483647,0,0,1,1,2,2,3,3,4,4,5,5,6,6,9,9,10,10,11,11,14,14,15,15,18,18,19,19],"right_children":[2,4,6,8,10,12,14,-1,-1,16,18,20,-1,-1,22,24,-1,-1,26,28,-1,-1,-1,-1,-1,-1,-1,-1,-1],"split_conditions":[8E-1,6E-1,5E-1,5E-1,5E-1,1E0,1E0,2.2018807E-2,3.8180355E-2,1E0,1E0,1E0,-1.2570863E-2,-1.1716531E-2,1E0,5E-1,3.0647693E-2,1.6909461E-2,5E-1,6E-1,1.1854917E-2,-3.9064817E-2,-2.1100536E-2,-4.758201E-3,2.4986448E-2,2.5379357E-3,1.4648737E-2,-4.9602925E-3,-8.767414E-3],"split_indices":[0,1,3,2,2,0,0,0,0,5,5,5,0,0,5,3,0,0,3,1,0,0,0,0,0,0,0,0,0],"split_type":[0,0,0,0,0,0,0,0,0,0,0,0,0,0,0,0,0,0,0,0,0,0,0,0,0,0,0,0,0],"sum_hessian":[1.6370012E2,8.949417E1,7.420595E1,1.3676905E1,7.581727E1,6.530049E1,8.905456E0,9.945216E0,3.7316883E0,4.7189938E1,2.862733E1,3.857957E1,2.672092E1,3.3859715E0,5.5194836E0,4.4190147E1,2.9997919E0,1.8132345E1,1.0494986E1,3.4471264E1,4.1083045E0,4.353547E0,1.1659367E0,4.2470303E1,1.7198462E0,1.6913166E0,8.803669E0,2.1036278E1,1.3434987E1],"tree_param":{"num_deleted":"0","num_feature":"6","num_nodes":"29","size_leaf_vector":"1"}},{"base_weights":[-0E0,1.6171466E-1,-1.9611079E-1,5.1073086E-1,9.74853E-2,-1.496836E-1,-5.290732E-1,2.0896895E-2,3.643121E-2,-2.2758618E-2,1.4806317E-2,-8.54603E-2,-1.20087955E-2,-1.1198916E-2,-7.025519E-1,-6.631612E-2,2.9178886E-2,-1.2462812E-1,1.1252276E-2,-3.801092E-2,-2.0320736E-2,-4.5285053E-3,2.3733666E-2,-4.7218674E-3,-8.360995E-3],"categories":[],"categories_nodes":[],"categories_segments":[],"categories_sizes":[],"default_left":[0,0,0,0,0,0,0,0,0,0,0,0,0,0,0,0,0,0,0,0,0,0,0,0,0],"id":15,"left_children":[1,3,5,7,9,11,13,-1,-1,15,-1,17,-1,-1,19,21,-1,23,-1,-1,-1,-1,-1,-1,-1],"loss_changes":[5.1877766E0,1.9730251E0,1.1015799E0,1.9084883E-1,1.8275408E0,3.6051738E-1,4.0795946E-1,0E0,0E0,1.2252098E0,0E0,4.673073E-1,0E0,0E0,4.8692226E-3,5.6538266E-1,0E0,2.9686987E-2,0E0,0E0,0E0,0E0,0E0,0E0,0E0],"parents":[2147483647,0,0,1,1,2,2,3,3,4,4,5,5,6,6,9,9,11,11,14,14,15,15,17,17],"right_children":[2,4,6,8,10,12,14,-1,-1,16,-1,18,-1,-1,20,22,-1,24,-1,-1,-1,-1,-1,-1,-1],"split_conditions":[8E-1,6E-1,5E-1,5E-1,5E-1,1E0,1E0,2.0896895E-2,3.643121E-2,1E0,1.4806317E-2,1E0,-1.20087955E-2,-1.1198916E-2,1E0,5E-1,2.9178886E-2,6E-1,1.1252276E-2,-3.801092E-2,-2.0320736E-2,-4.5285053E-3,2.3733666E-2,-4.7218674E-3,-8.360995E-3],"split_indices":[0,1,3,2,2,0,0,0,0,5,0,5,0,0,5,3,0,1,0,0,0,0,0,0,0],"split_type":[0,0,0,0,0,0,0,0,0,0,0,0,0,0,0,0,0,0,0,0,0,0,0,0,0],"sum_hessian":[1.6336116E2,8.949304E1,7.386812E1,1.3680559E1,7.5812485E1,6.508763E1,8.780487E0,9.960162E0,3.7203972E0,4.712376E1,2.8688723E1,3.8506298E1,2.6581331E1,3.3703766E0,5.4101105E0,4.412544E1,2.9983225E0,3.438926E1,4.117039E0,4.2558255E0,1.1542847E0,4.2400208E1,1.7252316E0,2.0999575E1,1.3389685E1],"tree_param":{"num_deleted":"0","num_feature":"6","num_nodes":"25","size_leaf_vector":"1"}},{"base_weights":[-0E0,1.5385745E-1,-1.874215E-1,4.8584387E-1,9.272905E-2,-1.4272441E-1,-5.1117295E-1,1.9838167E-2,3.4780957E-2,-2.1445513E-2,2.8079945E-1,-8.134858E-2,-1.1469835E-2,-1.0702635E-2,-6.824474E-1,-6.2993854E-2,2.7791882E-2,1.5264707E-2,2.3129603E-1,-1.1878532E-1,1.0682074E-2,-3.698108E-2,-1.9566499E-2,-4.309584E-3,2.255316E-2,1.7128264E-3,1.3135612E-2,-4.494557E-3,-7.972411E-3],"categories":[],"categories_nodes":[],"categories_segments":[],"categories_sizes":[],"default_left":[0,0,0,0,0,0,0,0,0,0,0,0,0,0,0,0,0,0,0,0,0,0,0,0,0,0,0,0,0],"id":16,"left_children":[1,3,5,7,9,11,13,-1,-1,15,17,19,-1,-1,21,23,-1,-1,25,27,-1,-1,-1,-1,-1,-1,-1,-1,-1],"loss_changes":[4.70745E0,1.7845631E0,1.0256648E0,1.7527318E-1,1.6434573E0,3.2827842E-1,3.863144E-1,0E0,0E0,1.1099682E0,1.0869503E-3,4.233636E-1,0E0,0E0,4.452467E-3,5.1228905E-1,0E0,0E0,5.009556E-2,2.652964E-2,0E0,0E0,0E0,0E0,0E0,0E0,0E0,0E0,0E0],"parents":[2147483647,0,0,1,1,2,2,3,3,4,4,5,5,6,6,9,9,10,10,11,11,14,14,15,15,18,18,19,19],"right_children":[2,4,6,8,10,12,14,-1,-1,16,18,20,-1,-1,22,24,-1,-1,26,28,-1,-1,-1,-1,-1,-1,-1,-1,-1],"split_conditions":[8E-1,6E-1,5E-1,5E-1,5E-1,1E0,1E0,1.9838167E-2,3.4780957E-2,1E0,1E0,1E0,-1.1469835E-2,-1.0702635E-2,1E0,5E-1,2.7791882E-2,1.5264707E-2,5E-1,6E-1,1.0682074E-2,-3.698108E-2,-1.9566499E-2,-4.309584E-3,2.255316E-2,1.7128264E-3,1.3135612E-2,-4.494557E-3,-7.972411E-3],"split_indices":[0,1,3,2,2,0,0,0,0,5,5,5,0,0,5,3,0,0,3,1,0,0,0,0,0,0,0,0,0],"split_type":[0,0,0,0,0,0,0,0,0,0,0,0,0,0,0,0,0,0,0,0,0,0,0,0,0,0,0,0,0],"sum_hessian":[1.6302588E2,8.948384E1,7.354204E1,1.3679296E1,7.580455E1,6.488285E1,8.659194E0,9.972141E0,3.707155E0,4.7058697E1,2.874585E1,3.843579E1,2.6447054E1,3.355356E0,5.3038383E0,4.406308E1,2.995617E0,1.82091E1,1.0536748E1,3.4310703E1,4.1250887E0,4.16085E0,1.1429882E0,4.233321E1,1.7298691E0,1.6965734E0,8.840174E0,2.0964485E1,1.3346219E1],"tree_param":{"num_deleted":"0","num_feature":"6","num_nodes":"29","size_leaf_vector":"1"}},{"base_weights":[-0E0,1.4647874E-1,-1.7909983E-1,4.6232492E-1,8.83019E-2,-1.3607506E-1,-4.9379668E-1,1.8838104E-2,3.3220556E-2,-2.0199712E-2,1.332838E-2,-7.7429265E-2,-1.095316E-2,-1.0226893E-2,-6.6281724E-1,-5.9831694E-2,2.6480118E-2,-1.1320937E-1,1.0142329E-2,-3.597365E-2,-1.883699E-2,-4.1009584E-3,2.1439346E-2,-4.2778878E-3,-7.600927E-3],"categories":[],"categories_nodes":[],"categories_segments":[],"categories_sizes":[],"default_left":[0,0,0,0,0,0,0,0,0,0,0,0,0,0,0,0,0,0,0,0,0,0,0,0,0],"id":17,"left_children":[1,3,5,7,9,11,13,-1,-1,15,-1,17,-1,-1,19,21,-1,23,-1,-1,-1,-1,-1,-1,-1],"loss_changes":[4.273799E0,1.6141194E0,9.546251E-1,1.6107273E-1,1.480734E0,2.9878628E-1,3.6556983E-1,0E0,0E0,1.005866E0,0E0,3.8358307E-1,0E0,0E0,3.9978027E-3,4.643089E-1,0E0,2.3667246E-2,0E0,0E0,0E0,0E0,0E0,0E0,0E0],"parents":[2147483647,0,0,1,1,2,2,3,3,4,4,5,5,6,6,9,9,11,11,14,14,15,15,17,17],"right_children":[2,4,6,8,10,12,14,-1,-1,16,-1,18,-1,-1,20,22,-1,24,-1,-1,-1,-1,-1,-1,-1],"split_conditions":[8E-1,6E-1,5E-1,5E-1,5E-1,1E0,1E0,1.8838104E-2,3.3220556E-2,1E0,1.332838E-2,1E0,-1.095316E-2,-1.0226893E-2,1E0,5E-1,2.6480118E-2,6E-1,1.0142329E-2,-3.597365E-2,-1.883699E-2,-4.1009584E-3,2.1439346E-2,-4.2778878E-3,-7.600927E-3],"split_indices":[0,1,3,2,2,0,0,0,0,5,0,5,0,0,5,3,0,1,0,0,0,0,0,0,0],"split_type":[0,0,0,0,0,0,0,0,0,0,0,0,0,0,0,0,0,0,0,0,0,0,0,0,0],"sum_hessian":[1.6269162E2,8.946402E1,7.322761E1,1.367381E1,7.579021E1,6.468598E1,8.541622E0,9.981514E0,3.6922958E0,4.69949E1,2.879531E1,3.8368E1,2.6317984E1,3.3409E0,5.200722E0,4.400304E1,2.9918597E0,3.423549E1,4.132509E0,4.068675E0,1.1320472E0,4.22692E1,1.7338407E0,2.0930954E1,1.3304536E1],"tree_param":{"num_deleted":"0","num_feature":"6","num_nodes":"25","size_leaf_vector":"1"}},{"base_weights":[-0E0,1.3939714E-1,-1.7113122E-1,4.400725E-1,8.400736E-2,-1.2972258E-1,-4.7692612E-1,1.7892605E-2,6.348448E-1,-1.9017974E-2,2.528691E-1,-7.36938E-2,-1.0457935E-2,-9.77093E-3,-6.436376E-1,2.4466684E-2,4.1463178E-2,-5.6822293E-2,2.523782E-2,1.3793905E-2,2.0620157E-1,-1.0788897E-1,9.631201E-3,-3.4987208E-2,-1.8131431E-2,-3.902178E-3,2.038728E-2,9.992792E-4,1.178582E-2,-4.0713777E-3,-7.245879E-3],"categories":[],"categories_nodes":[],"categories_segments":[],"categories_sizes":[],"default_left":[0,0,0,0,0,0,0,0,0,0,0,0,0,0,0,0,0,0,0,0,0,0,0,0,0,0,0,0,0,0,0],"id":18,"left_children":[1,3,5,7,9,11,13,-1,15,17,19,21,-1,-1,23,-1,-1,25,-1,-1,27,29,-1,-1,-1,-1,-1,-1,-1,-1,-1],"loss_changes":[3.8784723E0,1.4613098E0,8.881593E-1,1.4807868E-1,1.3321587E0,2.718178E-1,3.4568298E-1,0E0,3.181696E-4,9.1175866E-1,1.2841225E-3,3.4756798E-1,0E0,0E0,3.504753E-3,0E0,0E0,4.2092705E-1,0E0,0E0,4.5392126E-2,2.10751E-2,0E0,0E0,0E0,0E0,0E0,0E0,0E0,0E0,0E0],"parents":[2147483647,0,0,1,1,2,2,3,3,4,4,5,5,6,6,8,8,9,9,10,10,11,11,14,14,17,17,20,20,21,21],"right_children":[2,4,6,8,10,12,14,-1,16,18,20,22,-1,-1,24,-1,-1,26,-1,-1,28,30,-1,-1,-1,-1,-1,-1,-1,-1,-1],"split_conditions":[8E-1,6E-1,5E-1,5E-1,5E-1,1E0,1E0,1.7892605E-2,1E0,1E0,1E0,1E0,-1.0457935E-2,-9.77093E-3,1E0,2.4466684E-2,4.1463178E-2,5E-1,2.523782E-2,1.3793905E-2,5E-1,6E-1,9.631201E-3,-3.4987208E-2,-1.8131431E-2,-3.902178E-3,2.038728E-2,9.992792E-4,1.178582E-2,-4.0713777E-3,-7.245879E-3],"split_indices":[0,1,3,2,2,0,0,0,5,5,5,5,0,0,5,0,0,3,0,0,3,1,0,0,0,0,0,0,0,0,0],"split_type":[0,0,0,0,0,0,0,0,0,0,0,0,0,0,0,0,0,0,0,0,0,0,0,0,0,0,0,0,0,0,0],"sum_hessian":[1.6236351E2,8.943886E1,7.2924644E1,1.36647215E1,7.577414E1,6.449686E1,8.427792E0,9.988607E0,3.676114E0,4.693249E1,2.884165E1,3.8302853E1,2.6194002E1,3.3269958E0,5.100796E0,2.4507427E0,1.2253714E0,4.3945274E1,2.9872136E0,1.8270826E1,1.0570823E1,3.4163498E1,4.1393547E0,3.9793363E0,1.1214598E0,4.2208057E1,1.7372184E0,1.7009447E0,8.869878E0,2.0898912E1,1.3264586E1],"tree_param":{"num_deleted":"0","num_feature":"6","num_nodes":"31","size_leaf_vector":"1"}},{"base_weights":[-0E0,1.3281138E-1,-1.63502E-1,4.1940022E-1,8.001368E-2,-1.2365477E-1,-4.60545E-1,1.6998002E-2,3.0410925E-2,-1.7896863E-2,1.2007556E-2,-7.0133805E-2,-9.983398E-3,-9.333993E-3,-6.248883E-1,-5.395825E-2,2.405988E-2,-1.0281309E-1,9.147003E-3,-3.402057E-2,-1.7449113E-2,-3.7127864E-3,1.939251E-2,-3.8745743E-3,-6.906596E-3],"categories":[],"categories_nodes":[],"categories_segments":[],"categories_sizes":[],"default_left":[0,0,0,0,0,0,0,0,0,0,0,0,0,0,0,0,0,0,0,0,0,0,0,0,0],"id":19,"left_children":[1,3,5,7,9,11,13,-1,-1,15,-1,17,-1,-1,19,21,-1,23,-1,-1,-1,-1,-1,-1,-1],"loss_changes":[3.5231552E0,1.3260161E0,8.259876E-1,1.3821244E-1,1.2008524E0,2.4717009E-1,3.266194E-1,0E0,0E0,8.2663053E-1,0E0,3.1495926E-1,0E0,0E0,2.9752254E-3,3.816826E-1,0E0,1.8729657E-2,0E0,0E0,0E0,0E0,0E0,0E0,0E0],"parents":[2147483647,0,0,1,1,2,2,3,3,4,4,5,5,6,6,9,9,11,11,14,14,15,15,17,17],"right_children":[2,4,6,8,10,12,14,-1,-1,16,-1,18,-1,-1,20,22,-1,24,-1,-1,-1,-1,-1,-1,-1],"split_conditions":[8E-1,6E-1,5E-1,5E-1,5E-1,1E0,1E0,1.6998002E-2,3.0410925E-2,1E0,1.2007556E-2,1E0,-9.983398E-3,-9.333993E-3,1E0,5E-1,2.405988E-2,6E-1,9.147003E-3,-3.402057E-2,-1.7449113E-2,-3.7127864E-3,1.939251E-2,-3.8745743E-3,-6.906596E-3],"split_indices":[0,1,3,2,2,0,0,0,0,5,0,5,0,0,5,3,0,1,0,0,0,0,0,0,0],"split_type":[0,0,0,0,0,0,0,0,0,0,0,0,0,0,0,0,0,0,0,0,0,0,0,0,0],"sum_hessian":[1.6203941E2,8.9406425E1,7.263299E1,1.36534395E1,7.575299E1,6.4315285E1,8.317704E0,9.993709E0,3.6597307E0,4.6871567E1,2.888142E1,3.82403E1,2.6074986E1,3.3136313E0,5.0040727E0,4.3889744E1,2.9818232E0,3.4094627E1,4.1456738E0,3.8928494E0,1.1112235E0,4.2149677E1,1.7400683E0,2.0868313E1,1.3226315E1],"tree_param":{"num_deleted":"0","num_feature":"6","num_nodes":"25","size_leaf_vector":"1"}},{"base_weights":[-0E0,1.2641644E-1,-1.5619875E-1,3.9940023E-1,7.613235E-2,-1.1785967E-1,-4.4463885E-1,1.6150981E-2,5.8147866E-1,-1.6833363E-2,2.2788174E-1,-6.674131E-2,-9.528786E-3,-8.915371E-3,-6.06552E-1,2.2018934E-2,3.8561087E-2,-5.1232807E-2,2.2941787E-2,1.2475445E-2,1.8384168E-1,-9.797112E-2,8.688175E-3,-3.307271E-2,-1.6789332E-2,-3.5323647E-3,1.8451067E-2,3.836094E-4,1.0579269E-2,-3.6870406E-3,-6.582434E-3],"categories":[],"categories_nodes":[],"categories_segments":[],"categories_sizes":[],"default_left":[0,0,0,0,0,0,0,0,0,0,0,0,0,0,0,0,0,0,0,0,0,0,0,0,0,0,0,0,0,0,0],"id":20,"left_children":[1,3,5,7,9,11,13,-1,15,17,19,21,-1,-1,23,-1,-1,25,-1,-1,27,29,-1,-1,-1,-1,-1,-1,-1,-1,-1],"loss_changes":[3.1975276E0,1.2013137E0,7.678518E-1,1.2706065E-1,1.0807239E0,2.2465444E-1,3.0834818E-1,0E0,5.6324005E-3,7.4958336E-1,1.3849735E-3,2.8543276E-1,0E0,0E0,2.4119616E-3,0E0,0E0,3.4616613E-1,0E0,0E0,4.116538E-2,1.66094E-2,0E0,0E0,0E0,0E0,0E0,0E0,0E0,0E0,0E0],"parents":[2147483647,0,0,1,1,2,2,3,3,4,4,5,5,6,6,8,8,9,9,10,10,11,11,14,14,17,17,20,20,21,21],"right_children":[2,4,6,8,10,12,14,-1,16,18,20,22,-1,-1,24,-1,-1,26,-1,-1,28,30,-1,-1,-1,-1,-1,-1,-1,-1,-1],"split_conditions":[8E-1,6E-1,5E-1,5E-1,5E-1,1E0,1E0,1.6150981E-2,1E0,1E0,1E0,1E0,-9.528786E-3,-8.915371E-3,1E0,2.2018934E-2,3.8561087E-2,5E-1,2.2941787E-2,1.2475445E-2,5E-1,6E-1,8.688175E-3,-3.307271E-2,-1.6789332E-2,-3.5323647E-3,1.8451067E-2,3.836094E-4,1.0579269E-2,-3.6870406E-3,-6.582434E-3],"split_indices":[0,1,3,2,2,0,0,0,5,5,5,5,0,0,5,0,0,3,0,0,3,1,0,0,0,0,0,0,0,0,0],"split_type":[0,0,0,0,0,0,0,0,0,0,0,0,0,0,0,0,0,0,0,0,0,0,0,0,0,0,0,0,0,0,0],"sum_hessian":[1.6172238E2,8.9369965E1,7.235241E1,1.3638767E1,7.573119E1,6.414107E1,8.211342E0,9.997078E0,3.6416893E0,4.6812206E1,2.8918987E1,3.8180267E1,2.5960802E1,3.3007922E0,4.9105496E0,2.4301476E0,1.2115418E0,4.383639E1,2.9758162E0,1.8320356E1,1.0598631E1,3.402876E1,4.1515102E0,3.809216E0,1.1013339E0,4.209394E1,1.7424493E0,1.7045827E0,8.894049E0,2.0839092E1,1.3189667E1],"tree_param":{"num_deleted":"0","num_feature":"6","num_nodes":"31","size_leaf_vector":"1"}},{"base_weights":[-0E0,1.20473966E-1,-1.4920892E-1,3.8081276E-1,7.2527096E-2,-1.1232606E-1,-4.2919463E-1,1.5348518E-2,5.5741596E-1,-1.5824817E-2,1.0824808E-2,-6.3508816E-2,-9.09338E-3,-8.514381E-3,-5.886143E-1,2.1040099E-2,3.7029047E-2,-4.863968E-2,2.1879492E-2,-9.335297E-2,8.253234E-3,-3.2142796E-2,-1.6151441E-2,-3.3605178E-3,1.7559342E-2,-3.5083608E-3,-6.272779E-3],"categories":[],"categories_nodes":[],"categories_segments":[],"categories_sizes":[],"default_left":[0,0,0,0,0,0,0,0,0,0,0,0,0,0,0,0,0,0,0,0,0,0,0,0,0,0,0],"id":21,"left_children":[1,3,5,7,9,11,13,-1,15,17,-1,19,-1,-1,21,-1,-1,23,-1,25,-1,-1,-1,-1,-1,-1,-1],"loss_changes":[2.9049833E0,1.0908518E0,7.135098E-1,1.1862624E-1,9.7461593E-1,2.040962E-1,2.9084337E-1,0E0,3.9492846E-3,6.798163E-1,0E0,2.586946E-1,0E0,0E0,1.8191338E-3,0E0,0E0,3.1401086E-1,0E0,1.4694482E-2,0E0,0E0,0E0,0E0,0E0,0E0,0E0],"parents":[2147483647,0,0,1,1,2,2,3,3,4,4,5,5,6,6,8,8,9,9,11,11,14,14,17,17,19,19],"right_children":[2,4,6,8,10,12,14,-1,16,18,-1,20,-1,-1,22,-1,-1,24,-1,26,-1,-1,-1,-1,-1,-1,-1],"split_conditions":[8E-1,6E-1,5E-1,5E-1,5E-1,1E0,1E0,1.5348518E-2,1E0,1E0,1.0824808E-2,1E0,-9.09338E-3,-8.514381E-3,1E0,2.1040099E-2,3.7029047E-2,5E-1,2.1879492E-2,6E-1,8.253234E-3,-3.2142796E-2,-1.6151441E-2,-3.3605178E-3,1.7559342E-2,-3.5083608E-3,-6.272779E-3],"split_indices":[0,1,3,2,2,0,0,0,5,5,0,5,0,0,5,0,0,3,0,1,0,0,0,0,0,0,0],"split_type":[0,0,0,0,0,0,0,0,0,0,0,0,0,0,0,0,0,0,0,0,0,0,0,0,0,0,0],"sum_hessian":[1.6141086E2,8.932818E1,7.208269E1,1.3622818E1,7.570536E1,6.3974014E1,8.108673E0,9.998941E0,3.623877E0,4.6754467E1,2.895089E1,3.8122692E1,2.585132E1,3.2884653E0,4.820208E0,2.420935E0,1.2029423E0,4.378516E1,2.9693058E0,3.396579E1,4.156904E0,3.7284222E0,1.0917861E0,4.204075E1,1.7444144E0,2.08112E1,1.3154589E1],"tree_param":{"num_deleted":"0","num_feature":"6","num_nodes":"27","size_leaf_vector":"1"}},{"base_weights":[-0E0,1.1475297E-1,-1.4252016E-1,3.6315963E-1,6.901636E-2,-1.07042976E-1,-4.1420045E-1,1.4587851E-2,5.3447324E-1,-1.4868207E-2,2.0548749E-1,-6.042907E-2,-8.676466E-3,-8.130352E-3,-5.710629E-1,2.0105917E-2,3.5571843E-2,-4.6172384E-2,2.0869391E-2,1.1291171E-2,1.638928E-1,-8.894892E-2,7.840832E-3,-3.1230113E-2,-1.5534825E-2,-3.196843E-3,1.6714118E-2,-0E0,9.499002E-3,-3.338137E-3,-5.9770327E-3],"categories":[],"categories_nodes":[],"categories_segments":[],"categories_sizes":[],"default_left":[0,0,0,0,0,0,0,0,0,0,0,0,0,0,0,0,0,0,0,0,0,0,0,0,0,0,0,0,0,0,0],"id":22,"left_children":[1,3,5,7,9,11,13,-1,15,17,19,21,-1,-1,23,-1,-1,25,-1,-1,27,29,-1,-1,-1,-1,-1,-1,-1,-1,-1],"loss_changes":[2.6379519E0,9.914106E-1,6.627357E-1,1.107384E-1,8.773493E-1,1.853345E-1,2.7408266E-1,0E0,2.506137E-3,6.166151E-1,1.412034E-3,2.3448023E-1,0E0,0E0,1.2004375E-3,0E0,0E0,2.8488913E-1,0E0,0E0,3.7342817E-2,1.2966812E-2,0E0,0E0,0E0,0E0,0E0,0E0,0E0,0E0,0E0],"parents":[2147483647,0,0,1,1,2,2,3,3,4,4,5,5,6,6,8,8,9,9,10,10,11,11,14,14,17,17,20,20,21,21],"right_children":[2,4,6,8,10,12,14,-1,16,18,20,22,-1,-1,24,-1,-1,26,-1,-1,28,30,-1,-1,-1,-1,-1,-1,-1,-1,-1],"split_conditions":[8E-1,6E-1,5E-1,5E-1,5E-1,1E0,1E0,1.4587851E-2,1E0,1E0,1E0,1E0,-8.676466E-3,-8.130352E-3,1E0,2.0105917E-2,3.5571843E-2,5E-1,2.0869391E-2,1.1291171E-2,5E-1,6E-1,7.840832E-3,-3.1230113E-2,-1.5534825E-2,-3.196843E-3,1.6714118E-2,-0E0,9.499002E-3,-3.338137E-3,-5.9770327E-3],"split_indices":[0,1,3,2,2,0,0,0,5,5,5,5,0,0,5,0,0,3,0,0,3,1,0,0,0,0,0,0,0,0,0],"split_type":[0,0,0,0,0,0,0,0,0,0,0,0,0,0,0,0,0,0,0,0,0,0,0,0,0,0,0,0,0,0,0],"sum_hessian":[1.6110835E2,8.9284805E1,7.182355E1,1.3605077E1,7.5679726E1,6.3813892E1,8.009655E0,9.999504E0,3.6055727E0,4.66984E1,2.8981329E1,3.80675E1,2.5746393E1,3.276636E0,4.7330194E0,2.4116352E0,1.1939375E0,4.3736008E1,2.962391E0,1.836E1,1.0621328E1,3.390561E1,4.161892E0,3.6504447E0,1.0825744E0,4.1989998E1,1.7460116E0,1.707611E0,8.913717E0,2.078458E1,1.3121028E1],"tree_param":{"num_deleted":"0","num_feature":"6","num_nodes":"31","size_leaf_vector":"1"}},{"base_weights":[-0E0,1.0938051E-1,-1.3612074E-1,3.463835E-1,6.575687E-2,-1.0199991E-1,-3.9964557E-1,1.3866454E-2,5.12576E-1,-1.3960947E-2,1.952711E-1,-5.7495374E-2,-8.2773445E-3,-7.7626402E-3,-5.5388784E-1,1.9213898E-2,3.4183186E-2,-4.3824997E-2,1.9908223E-2,1.0719264E-2,1.5587398E-1,-8.4749915E-2,7.449712E-3,-3.0334104E-2,-1.49388835E-2,-3.0409682E-3,1.5912425E-2,-0E0,9.021002E-3,-3.1760007E-3,-5.69464E-3],"categories":[],"categories_nodes":[],"categories_segments":[],"categories_sizes":[],"default_left":[0,0,0,0,0,0,0,0,0,0,0,0,0,0,0,0,0,0,0,0,0,0,0,0,0,0,0,0,0,0,0],"id":23,"left_children":[1,3,5,7,9,11,13,-1,15,17,19,21,-1,-1,23,-1,-1,25,-1,-1,27,29,-1,-1,-1,-1,-1,-1,-1,-1,-1],"loss_changes":[2.3968844E0,9.007623E-1,6.153178E-1,1.0335302E-1,7.9143536E-1,1.6821897E-1,2.580459E-1,0E0,1.2600422E-3,5.5934095E-1,6.401539E-5,2.1255118E-1,0E0,0E0,5.611181E-4,0E0,0E0,2.5850615E-1,0E0,0E0,3.2982975E-2,1.1409596E-2,0E0,0E0,0E0,0E0,0E0,0E0,0E0,0E0,0E0],"parents":[2147483647,0,0,1,1,2,2,3,3,4,4,5,5,6,6,8,8,9,9,10,10,11,11,14,14,17,17,20,20,21,21],"right_children":[2,4,6,8,10,12,14,-1,16,18,20,22,-1,-1,24,-1,-1,26,-1,-1,28,30,-1,-1,-1,-1,-1,-1,-1,-1,-1],"split_conditions":[8E-1,6E-1,5E-1,5E-1,5E-1,1E0,1E0,1.3866454E-2,1E0,1E0,1E0,1E0,-8.2773445E-3,-7.7626402E-3,1E0,1.9213898E-2,3.4183186E-2,5E-1,1.9908223E-2,1.0719264E-2,5E-1,6E-1,7.449712E-3,-3.0334104E-2,-1.49388835E-2,-3.0409682E-3,1.5912425E-2,-0E0,9.021002E-3,-3.1760007E-3,-5.69464E-3],"split_indices":[0,1,3,2,2,0,0,0,5,5,5,5,0,0,5,0,0,3,0,0,3,1,0,0,0,0,0,0,0,0,0],"split_type":[0,0,0,0,0,0,0,0,0,0,0,0,0,0,0,0,0,0,0,0,0,0,0,0,0,0,0,0,0,0,0],"sum_hessian":[1.6081151E2,8.923677E1,7.157473E1,1.3585871E1,7.56509E1,6.3660503E1,7.9142313E0,9.998948E0,3.5869224E0,4.664402E1,2.9006884E1,3.8014614E1,2.5645887E1,3.2652888E0,4.6489425E0,2.4023025E0,1.1846199E0,4.368886E1,2.9551594E0,1.837746E1,1.0629423E1,3.3848106E1,4.166508E0,3.5752504E0,1.0736921E0,4.1941578E1,1.7472837E0,1.707611E0,8.921812E0,2.0759178E1,1.3088928E1],"tree_param":{"num_deleted":"0","num_feature":"6","num_nodes":"31","size_leaf_vector":"1"}},{"base_weights":[-0E0,1.0427068E-1,-1.2999913E-1,3.3043244E-1,6.265694E-2,-9.718663E-2,-3.855199E-1,1.3182031E-2,4.9165758E-1,-1.3100676E-2,9.2794215E-3,-5.47007E-2,-7.895366E-3,-7.4106255E-3,-2.6854027E-2,1.8361753E-2,3.2857623E-2,-4.1591983E-2,1.8993046E-2,-8.074649E-2,7.0786825E-3,-2.8925424E-3,1.515157E-2,-3.0215646E-3,-5.425016E-3],"categories":[],"categories_nodes":[],"categories_segments":[],"categories_sizes":[],"default_left":[0,0,0,0,0,0,0,0,0,0,0,0,0,0,0,0,0,0,0,0,0,0,0,0,0],"id":24,"left_children":[1,3,5,7,9,11,13,-1,15,17,-1,19,-1,-1,-1,-1,-1,21,-1,23,-1,-1,-1,-1,-1],"loss_changes":[2.178009E0,8.185899E-1,5.710567E-1,9.643018E-2,7.1405756E-1,1.5261471E-1,2.4271369E-1,0E0,1.7762184E-4,5.074224E-1,0E0,1.9268942E-1,0E0,0E0,0E0,0E0,0E0,2.345979E-1,0E0,1.000756E-2,0E0,0E0,0E0,0E0,0E0],"parents":[2147483647,0,0,1,1,2,2,3,3,4,4,5,5,6,6,8,8,9,9,11,11,17,17,19,19],"right_children":[2,4,6,8,10,12,14,-1,16,18,-1,20,-1,-1,-1,-1,-1,22,-1,24,-1,-1,-1,-1,-1],"split_conditions":[8E-1,6E-1,5E-1,5E-1,5E-1,1E0,1E0,1.3182031E-2,1E0,1E0,9.2794215E-3,1E0,-7.895366E-3,-7.4106255E-3,-2.6854027E-2,1.8361753E-2,3.2857623E-2,5E-1,1.8993046E-2,6E-1,7.0786825E-3,-2.8925424E-3,1.515157E-2,-3.0215646E-3,-5.425016E-3],"split_indices":[0,1,3,2,2,0,0,0,5,5,0,5,0,0,0,0,0,3,0,1,0,0,0,0,0],"split_type":[0,0,0,0,0,0,0,0,0,0,0,0,0,0,0,0,0,0,0,0,0,0,0,0,0],"sum_hessian":[1.6052254E2,8.918657E1,7.133597E1,1.3565486E1,7.562108E1,6.3513626E1,7.82234E0,9.997433E0,3.5680537E0,4.659136E1,2.9029724E1,3.796397E1,2.5549658E1,3.25441E0,4.5679297E0,2.3929832E0,1.1750705E0,4.364367E1,2.947688E0,3.3793186E1,4.170782E0,4.18954E1,1.7482688E0,2.073495E1,1.3058238E1],"tree_param":{"num_deleted":"0","num_feature":"6","num_nodes":"25","size_leaf_vector":"1"}},{"base_weights":[-0E0,9.9344134E-2,-1.2408705E-1,3.1525826E-1,5.963197E-2,-9.2593566E-2,-3.7132475E-1,1.25324195E-2,2.3582939E-2,-1.2284955E-2,1.7620312E-1,-5.2038968E-2,-7.529883E-3,-7.0736944E-3,-5.1983273E-1,-3.9467826E-2,1.8121174E-2,9.709192E-3,1.3894731E-1,-7.693029E-2,6.726624E-3,-2.8667012E-2,-1.33208055E-2,-2.751218E-3,1.4429095E-2,-0E0,8.102375E-3,-2.8744848E-3,-5.167651E-3],"categories":[],"categories_nodes":[],"categories_segments":[],"categories_sizes":[],"default_left":[0,0,0,0,0,0,0,0,0,0,0,0,0,0,0,0,0,0,0,0,0,0,0,0,0,0,0,0,0],"id":25,"left_children":[1,3,5,7,9,11,13,-1,-1,15,17,19,-1,-1,21,23,-1,-1,25,27,-1,-1,-1,-1,-1,-1,-1,-1,-1],"loss_changes":[1.9770979E0,7.445266E-1,5.278019E-1,8.993721E-2,6.429743E-1,1.3839418E-1,2.2695279E-1,0E0,0E0,4.6034557E-1,1.7374754E-4,1.7469914E-1,0E0,0E0,4.961252E-3,2.129268E-1,0E0,0E0,2.9815093E-2,8.746773E-3,0E0,0E0,0E0,0E0,0E0,0E0,0E0,0E0,0E0],"parents":[2147483647,0,0,1,1,2,2,3,3,4,4,5,5,6,6,9,9,10,10,11,11,14,14,15,15,18,18,19,19],"right_children":[2,4,6,8,10,12,14,-1,-1,16,18,20,-1,-1,22,24,-1,-1,26,28,-1,-1,-1,-1,-1,-1,-1,-1,-1],"split_conditions":[8E-1,6E-1,5E-1,5E-1,5E-1,1E0,1E0,1.25324195E-2,2.3582939E-2,1E0,1E0,1E0,-7.529883E-3,-7.0736944E-3,1E0,5E-1,1.8121174E-2,9.709192E-3,5E-1,6E-1,6.726624E-3,-2.8667012E-2,-1.33208055E-2,-2.751218E-3,1.4429095E-2,-0E0,8.102375E-3,-2.8744848E-3,-5.167651E-3],"split_indices":[0,1,3,2,2,0,0,0,0,5,5,5,0,0,5,3,0,0,3,1,0,0,0,0,0,0,0,0,0],"split_type":[0,0,0,0,0,0,0,0,0,0,0,0,0,0,0,0,0,0,0,0,0,0,0,0,0,0,0,0,0],"sum_hessian":[1.6024242E2,8.9136505E1,7.110591E1,1.354418E1,7.559232E1,6.337305E1,7.7328625E0,9.995102E0,3.549078E0,4.6540413E1,2.9051912E1,3.7915485E1,2.5457563E1,3.243984E0,4.4888783E0,4.360037E1,2.940044E0,1.8405567E1,1.0646345E1,3.3740746E1,4.1747413E0,3.4391694E0,1.049709E0,4.1851368E1,1.7490017E0,1.7100431E0,8.936302E0,2.071184E1,1.3028906E1],"tree_param":{"num_deleted":"0","num_feature":"6","num_nodes":"29","size_leaf_vector":"1"}},{"base_weights":[-0E0,9.465781E-2,-1.1849089E-1,3.0046144E-1,5.682062E-2,-8.821125E-2,-3.5804364E-1,1.1915653E-2,4.5121956E-1,-1.1511612E-2,8.374072E-3,-4.950402E-2,-7.1802675E-3,-6.751284E-3,-5.0375867E-1,1.6501082E-2,3.068429E-2,-3.7447475E-2,1.729019E-2,-7.329301E-2,6.392532E-3,-2.7817244E-2,-1.2800264E-2,-2.6166737E-3,1.3742757E-2,-2.734429E-3,-4.9220207E-3],"categories":[],"categories_nodes":[],"categories_segments":[],"categories_sizes":[],"default_left":[0,0,0,0,0,0,0,0,0,0,0,0,0,0,0,0,0,0,0,0,0,0,0,0,0,0,0],"id":26,"left_children":[1,3,5,7,9,11,13,-1,15,17,-1,19,-1,-1,21,-1,-1,23,-1,25,-1,-1,-1,-1,-1,-1,-1],"loss_changes":[1.795743E0,6.748982E-1,4.894337E-1,8.239496E-2,5.8012E-1,1.2544107E-1,2.1304119E-1,0E0,4.0264726E-3,4.176509E-1,0E0,1.5840413E-1,0E0,0E0,3.9480925E-3,0E0,0E0,1.9327982E-1,0E0,7.614255E-3,0E0,0E0,0E0,0E0,0E0,0E0,0E0],"parents":[2147483647,0,0,1,1,2,2,3,3,4,4,5,5,6,6,8,8,9,9,11,11,14,14,17,17,19,19],"right_children":[2,4,6,8,10,12,14,-1,16,18,-1,20,-1,-1,22,-1,-1,24,-1,26,-1,-1,-1,-1,-1,-1,-1],"split_conditions":[8E-1,6E-1,5E-1,5E-1,5E-1,1E0,1E0,1.1915653E-2,1E0,1E0,8.374072E-3,1E0,-7.1802675E-3,-6.751284E-3,1E0,1.6501082E-2,3.068429E-2,5E-1,1.729019E-2,6E-1,6.392532E-3,-2.7817244E-2,-1.2800264E-2,-2.6166737E-3,1.3742757E-2,-2.734429E-3,-4.9220207E-3],"split_indices":[0,1,3,2,2,0,0,0,5,5,0,5,0,0,5,0,0,3,0,1,0,0,0,0,0,0,0],"split_type":[0,0,0,0,0,0,0,0,0,0,0,0,0,0,0,0,0,0,0,0,0,0,0,0,0,0,0],"sum_hessian":[1.5996927E2,8.908286E1,7.0886406E1,1.3521474E1,7.556139E1,6.3238552E1,7.6478515E0,9.992083E0,3.5293918E0,4.649119E1,2.90702E1,3.7869095E1,2.5369457E1,3.2339964E0,4.4138556E0,2.3713105E0,1.1580813E0,4.3558903E1,2.9322863E0,3.369068E1,4.178413E0,3.3718119E0,1.0420434E0,4.180939E1,1.7495136E0,2.0689802E1,1.3000879E1],"tree_param":{"num_deleted":"0","num_feature":"6","num_nodes":"27","size_leaf_vector":"1"}},{"base_weights":[-0E0,9.0199195E-2,-1.1314065E-1,2.867301E-1,5.4081496E-2,-8.403056E-2,-3.4516513E-1,1.1329922E-2,4.329591E-1,-1.0778443E-2,1.590355E-1,-4.708988E-2,-6.845908E-3,-6.4428123E-3,-4.8803535E-1,1.576843E-2,2.9508924E-2,-3.5525892E-2,1.6497841E-2,8.798758E-3,1.23742834E-1,-6.982643E-2,6.075409E-3,-2.6982859E-2,-1.22977635E-2,-2.4885894E-3,1.3090446E-2,-0E0,7.277611E-3,-2.6010533E-3,-4.6876306E-3],"categories":[],"categories_nodes":[],"categories_segments":[],"categories_sizes":[],"default_left":[0,0,0,0,0,0,0,0,0,0,0,0,0,0,0,0,0,0,0,0,0,0,0,0,0,0,0,0,0,0,0],"id":27,"left_children":[1,3,5,7,9,11,13,-1,15,17,19,21,-1,-1,23,-1,-1,25,-1,-1,27,29,-1,-1,-1,-1,-1,-1,-1,-1,-1],"loss_changes":[1.6311498E0,6.1408126E-1,4.5367926E-1,7.678735E-2,5.224335E-1,1.13648295E-1,1.9978184E-1,0E0,2.8600097E-3,3.7892225E-1,2.8651953E-4,1.4364266E-1,0E0,0E0,2.9525757E-3,0E0,0E0,1.754635E-1,0E0,0E0,2.6923522E-2,6.598562E-3,0E0,0E0,0E0,0E0,0E0,0E0,0E0,0E0,0E0],"parents":[2147483647,0,0,1,1,2,2,3,3,4,4,5,5,6,6,8,8,9,9,10,10,11,11,14,14,17,17,20,20,21,21],"right_children":[2,4,6,8,10,12,14,-1,16,18,20,22,-1,-1,24,-1,-1,26,-1,-1,28,30,-1,-1,-1,-1,-1,-1,-1,-1,-1],"split_conditions":[8E-1,6E-1,5E-1,5E-1,5E-1,1E0,1E0,1.1329922E-2,1E0,1E0,1E0,1E0,-6.845908E-3,-6.4428123E-3,1E0,1.576843E-2,2.9508924E-2,5E-1,1.6497841E-2,8.798758E-3,5E-1,6E-1,6.075409E-3,-2.6982859E-2,-1.22977635E-2,-2.4885894E-3,1.3090446E-2,-0E0,7.277611E-3,-2.6010533E-3,-4.6876306E-3],"split_indices":[0,1,3,2,2,0,0,0,5,5,5,5,0,0,5,0,0,3,0,0,3,1,0,0,0,0,0,0,0,0,0],"split_type":[0,0,0,0,0,0,0,0,0,0,0,0,0,0,0,0,0,0,0,0,0,0,0,0,0,0,0,0,0,0,0],"sum_hessian":[1.597069E2,8.903083E1,7.067606E1,1.3499018E1,7.5531815E1,6.310992E1,7.566139E0,9.988485E0,3.5105324E0,4.644368E1,2.9088137E1,3.7824722E1,2.52852E1,3.2244318E0,4.341707E0,2.362297E0,1.1482354E0,4.3519215E1,2.9244657E0,1.8427864E1,1.0660273E1,3.3642902E1,4.1818185E0,3.3070374E0,1.0346699E0,4.1769382E1,1.7498318E0,1.712179E0,8.948093E0,2.0668795E1,1.2974107E1],"tree_param":{"num_deleted":"0","num_feature":"6","num_nodes":"31","size_leaf_vector":"1"}},{"base_weights":[-0E0,8.6003885E-2,-1.0802656E-1,2.7365363E-1,5.1530942E-2,-8.004292E-2,-3.3268133E-1,1.0773507E-2,4.1547078E-1,-1.0083406E-2,7.5585837E-3,-4.4791274E-2,-6.5262043E-3,-6.1477385E-3,-4.726589E-1,1.50676835E-2,2.838152E-2,-3.3698376E-2,1.5742086E-2,-6.652328E-2,5.7743522E-3,-2.6163716E-2,-1.1812794E-2,-2.366667E-3,1.24702845E-2,-2.4740838E-3,-4.4639925E-3],"categories":[],"categories_nodes":[],"categories_segments":[],"categories_sizes":[],"default_left":[0,0,0,0,0,0,0,0,0,0,0,0,0,0,0,0,0,0,0,0,0,0,0,0,0,0,0],"id":28,"left_children":[1,3,5,7,9,11,13,-1,15,17,-1,19,-1,-1,21,-1,-1,23,-1,25,-1,-1,-1,-1,-1,-1,-1],"loss_changes":[1.4824586E0,5.585541E-1,4.2037916E-1,7.1523905E-2,4.7134137E-1,1.02915615E-1,1.8715829E-1,0E0,1.8134117E-3,3.437864E-1,0E0,1.302705E-1,0E0,0E0,1.9788742E-3,0E0,0E0,1.5930536E-1,0E0,5.68828E-3,0E0,0E0,0E0,0E0,0E0,0E0,0E0],"parents":[2147483647,0,0,1,1,2,2,3,3,4,4,5,5,6,6,8,8,9,9,11,11,14,14,17,17,19,19],"right_children":[2,4,6,8,10,12,14,-1,16,18,-1,20,-1,-1,22,-1,-1,24,-1,26,-1,-1,-1,-1,-1,-1,-1],"split_conditions":[8E-1,6E-1,5E-1,5E-1,5E-1,1E0,1E0,1.0773507E-2,1E0,1E0,7.5585837E-3,1E0,-6.5262043E-3,-6.1477385E-3,1E0,1.50676835E-2,2.838152E-2,5E-1,1.5742086E-2,6E-1,5.7743522E-3,-2.6163716E-2,-1.1812794E-2,-2.366667E-3,1.24702845E-2,-2.4740838E-3,-4.4639925E-3],"split_indices":[0,1,3,2,2,0,0,0,5,5,0,5,0,0,5,0,0,3,0,1,0,0,0,0,0,0,0],"split_type":[0,0,0,0,0,0,0,0,0,0,0,0,0,0,0,0,0,0,0,0,0,0,0,0,0,0,0],"sum_hessian":[1.594514E2,8.8976814E1,7.047459E1,1.3476223E1,7.5500595E1,6.2986946E1,7.487641E0,9.984409E0,3.4918141E0,4.6397854E1,2.9102737E1,3.7782288E1,2.5204657E1,3.2152753E0,4.2723656E0,2.353433E0,1.1383811E0,4.3481228E1,2.9166265E0,3.359731E1,4.18498E0,3.2447853E0,1.0275805E0,4.1731247E1,1.7499814E0,2.0648767E1,1.2948542E1],"tree_param":{"num_deleted":"0","num_feature":"6","num_nodes":"27","size_leaf_vector":"1"}},{"base_weights":[-0E0,8.1964955E-2,-1.03139065E-1,2.6119754E-1,4.9050454E-2,-7.623995E-2,-3.2058436E-1,1.0244827E-2,3.9871505E-1,-9.424616E-3,1.4356592E-1,-4.260264E-2,-6.220603E-3,-5.8655287E-3,-4.5762625E-1,1.4397362E-2,2.729911E-2,-3.1960472E-2,1.5021019E-2,1.5954658E-1,1.1007781E-1,-6.3376E-2,5.488524E-3,-2.5359718E-2,-1.13448715E-2,-2.2506185E-3,1.1880438E-2,8.670989E-3,4.700706E-3,-0E0,6.536671E-3,-2.3531949E-3,-4.2506657E-3],"categories":[],"categories_nodes":[],"categories_segments":[],"categories_sizes":[],"default_left":[0,0,0,0,0,0,0,0,0,0,0,0,0,0,0,0,0,0,0,0,0,0,0,0,0,0,0,0,0,0,0,0,0],"id":29,"left_children":[1,3,5,7,9,11,13,-1,15,17,19,21,-1,-1,23,-1,-1,25,-1,27,29,31,-1,-1,-1,-1,-1,-1,-1,-1,-1,-1,-1],"loss_changes":[1.3467836E0,5.08391E-1,3.8938314E-1,6.658417E-2,4.2450762E-1,9.3153566E-2,1.7515409E-1,0E0,8.714199E-4,3.119058E-1,3.9845705E-4,1.18156455E-1,0E0,0E0,1.0312796E-3,0E0,0E0,1.4464763E-1,0E0,1.8584132E-3,2.4284422E-2,4.874155E-3,0E0,0E0,0E0,0E0,0E0,0E0,0E0,0E0,0E0,0E0,0E0],"parents":[2147483647,0,0,1,1,2,2,3,3,4,4,5,5,6,6,8,8,9,9,10,10,11,11,14,14,17,17,19,19,20,20,21,21],"right_children":[2,4,6,8,10,12,14,-1,16,18,20,22,-1,-1,24,-1,-1,26,-1,28,30,32,-1,-1,-1,-1,-1,-1,-1,-1,-1,-1,-1],"split_conditions":[8E-1,6E-1,5E-1,5E-1,5E-1,1E0,1E0,1.0244827E-2,1E0,1E0,1E0,1E0,-6.220603E-3,-5.8655287E-3,1E0,1.4397362E-2,2.729911E-2,5E-1,1.5021019E-2,5E-1,5E-1,6E-1,5.488524E-3,-2.5359718E-2,-1.13448715E-2,-2.2506185E-3,1.1880438E-2,8.670989E-3,4.700706E-3,-0E0,6.536671E-3,-2.3531949E-3,-4.2506657E-3],"split_indices":[0,1,3,2,2,0,0,0,5,5,5,5,0,0,5,0,0,3,0,3,3,1,0,0,0,0,0,0,0,0,0,0,0],"split_type":[0,0,0,0,0,0,0,0,0,0,0,0,0,0,0,0,0,0,0,0,0,0,0,0,0,0,0,0,0,0,0,0,0],"sum_hessian":[1.5920584E2,8.892416E1,7.028168E1,1.345324E1,7.547092E1,6.286941E1,7.4122677E0,9.979942E0,3.4732983E0,4.6353703E1,2.9117214E1,3.774173E1,2.512768E1,3.2065125E0,4.205755E0,2.3447373E0,1.1285609E0,4.3444893E1,2.9088073E0,1.8445465E1,1.0671749E1,3.3553814E1,4.1879163E0,3.184989E0,1.0207664E0,4.169491E1,1.7499845E0,1.4457256E1,3.9882085E0,1.7140585E0,8.957691E0,2.0629683E1,1.2924132E1],"tree_param":{"num_deleted":"0","num_feature":"6","num_nodes":"33","size_leaf_vector":"1"}},{"base_weights":[-0E0,7.8194164E-2,-9.846905E-2,2.4932964E-1,4.6776105E-2,-7.26137E-2,-3.088669E-1,9.742399E-3,3.8265553E-1,-8.8003045E-3,6.8287286E-3,-4.0519025E-2,-5.9285434E-3,-5.595686E-3,-4.4293502E-1,1.3756081E-2,2.625904E-2,-3.0307963E-2,1.4332883E-2,-6.0377628E-2,5.217084E-3,-2.457082E-2,-1.0893535E-2,-2.1401753E-3,1.1319302E-2,-2.2381146E-3,-4.0471973E-3],"categories":[],"categories_nodes":[],"categories_segments":[],"categories_sizes":[],"default_left":[0,0,0,0,0,0,0,0,0,0,0,0,0,0,0,0,0,0,0,0,0,0,0,0,0,0,0],"id":30,"left_children":[1,3,5,7,9,11,13,-1,15,17,-1,19,-1,-1,21,-1,-1,23,-1,25,-1,-1,-1,-1,-1,-1,-1],"loss_changes":[1.2246335E0,4.6239775E-1,3.6054868E-1,6.194979E-2,3.8350394E-1,8.427805E-2,1.6375291E-1,0E0,2.1576881E-5,2.829763E-1,0E0,1.0718079E-1,0E0,0E0,1.1318922E-4,0E0,0E0,1.3135001E-1,0E0,4.1469634E-3,0E0,0E0,0E0,0E0,0E0,0E0,0E0],"parents":[2147483647,0,0,1,1,2,2,3,3,4,4,5,5,6,6,8,8,9,9,11,11,14,14,17,17,19,19],"right_children":[2,4,6,8,10,12,14,-1,16,18,-1,20,-1,-1,22,-1,-1,24,-1,26,-1,-1,-1,-1,-1,-1,-1],"split_conditions":[8E-1,6E-1,5E-1,5E-1,5E-1,1E0,1E0,9.742399E-3,1E0,1E0,6.8287286E-3,1E0,-5.9285434E-3,-5.595686E-3,1E0,1.3756081E-2,2.625904E-2,5E-1,1.4332883E-2,6E-1,5.217084E-3,-2.457082E-2,-1.0893535E-2,-2.1401753E-3,1.1319302E-2,-2.2381146E-3,-4.0471973E-3],"split_indices":[0,1,3,2,2,0,0,0,5,5,0,5,0,0,5,0,0,3,0,1,0,0,0,0,0,0,0],"split_type":[0,0,0,0,0,0,0,0,0,0,0,0,0,0,0,0,0,0,0,0,0,0,0,0,0,0,0],"sum_hessian":[1.589671E2,8.8870056E1,7.0097046E1,1.3430197E1,7.543986E1,6.275712E1,7.3399305E0,9.97516E0,3.4550374E0,4.631119E1,2.9128668E1,3.7702976E1,2.5054142E1,3.1981292E0,4.1418014E0,2.336226E0,1.1188112E0,4.341015E1,2.901041E0,3.351233E1,4.1906447E0,3.1275818E0,1.0142195E0,4.166029E1,1.7498608E0,2.0611494E1,1.2900836E1],"tree_param":{"num_deleted":"0","num_feature":"6","num_nodes":"27","size_leaf_vector":"1"}},{"base_weights":[-0E0,7.453265E-2,-9.400749E-2,2.3802035E-1,4.4527408E-2,-6.915634E-2,-2.975213E-1,9.264868E-3,1.8362928E-2,-8.20889E-3,1.29716E-1,-3.8535524E-2,-5.6494786E-3,-5.337704E-3,-2.1429144E-2,-2.8736947E-2,1.3676055E-2,1.4487198E-1,9.778515E-2,-5.7521425E-2,4.9592895E-3,-2.0350835E-3,1.0785322E-2,7.894895E-3,4.135772E-3,-0E0,5.8704186E-3,-2.128578E-3,-3.853152E-3],"categories":[],"categories_nodes":[],"categories_segments":[],"categories_sizes":[],"default_left":[0,0,0,0,0,0,0,0,0,0,0,0,0,0,0,0,0,0,0,0,0,0,0,0,0,0,0,0,0],"id":31,"left_children":[1,3,5,7,9,11,13,-1,-1,15,17,19,-1,-1,-1,21,-1,23,25,27,-1,-1,-1,-1,-1,-1,-1,-1,-1],"loss_changes":[1.1127478E0,4.2099825E-1,3.3374047E-1,5.7602704E-2,3.4541577E-1,7.621178E-2,1.5293777E-1,0E0,0E0,2.567233E-1,6.0117245E-4,9.723635E-2,0E0,0E0,0E0,1.1928457E-1,0E0,1.6896129E-3,2.1876134E-2,3.498301E-3,0E0,0E0,0E0,0E0,0E0,0E0,0E0,0E0,0E0],"parents":[2147483647,0,0,1,1,2,2,3,3,4,4,5,5,6,6,9,9,10,10,11,11,15,15,17,17,18,18,19,19],"right_children":[2,4,6,8,10,12,14,-1,-1,16,18,20,-1,-1,-1,22,-1,24,26,28,-1,-1,-1,-1,-1,-1,-1,-1,-1],"split_conditions":[8E-1,6E-1,5E-1,5E-1,5E-1,1E0,1E0,9.264868E-3,1.8362928E-2,1E0,1E0,1E0,-5.6494786E-3,-5.337704E-3,-2.1429144E-2,5E-1,1.3676055E-2,5E-1,5E-1,6E-1,4.9592895E-3,-2.0350835E-3,1.0785322E-2,7.894895E-3,4.135772E-3,-0E0,5.8704186E-3,-2.128578E-3,-3.853152E-3],"split_indices":[0,1,3,2,2,0,0,0,0,5,5,5,0,0,0,3,0,3,3,1,0,0,0,0,0,0,0,0,0],"split_type":[0,0,0,0,0,0,0,0,0,0,0,0,0,0,0,0,0,0,0,0,0,0,0,0,0,0,0,0,0],"sum_hessian":[1.5873825E2,8.8817856E1,6.9920395E1,1.3407206E1,7.5410645E1,6.264986E1,7.270536E0,9.97013E0,3.4370754E0,4.627029E1,2.9140356E1,3.7665955E1,2.4983908E1,3.1901112E0,4.080425E0,4.3376934E1,2.8933554E0,1.8459135E1,1.0681222E1,3.347277E1,4.1931834E0,4.1627308E1,1.7496281E0,1.4468561E1,3.9905736E0,1.7157172E0,8.965505E0,2.0594166E1,1.2878605E1],"tree_param":{"num_deleted":"0","num_feature":"6","num_nodes":"29","size_leaf_vector":"1"}},{"base_weights":[-0E0,7.106232E-2,-8.9692965E-2,2.2691761E-1,4.246396E-2,-6.5860584E-2,-2.860629E-1,8.810907E-3,3.5127622E-1,-7.6482138E-3,1.23405725E-1,-3.6647506E-2,-5.3829025E-3,-5.091097E-3,-2.0687817E-2,1.23220375E-2,2.4559423E-2,-2.7242988E-2,1.3049009E-2,1.3778284E-1,9.2875324E-2,-5.480099E-2,4.7144406E-3,-1.9350642E-3,1.0277058E-2,7.5001507E-3,3.933267E-3,-0E0,5.5781384E-3,-2.0243244E-3,-3.6681313E-3],"categories":[],"categories_nodes":[],"categories_segments":[],"categories_sizes":[],"default_left":[0,0,0,0,0,0,0,0,0,0,0,0,0,0,0,0,0,0,0,0,0,0,0,0,0,0,0,0,0,0,0],"id":32,"left_children":[1,3,5,7,9,11,13,-1,15,17,19,21,-1,-1,-1,-1,-1,23,-1,25,27,29,-1,-1,-1,-1,-1,-1,-1,-1,-1],"loss_changes":[1.0106847E0,3.8165298E-1,3.074168E-1,5.244887E-2,3.1204337E-1,6.888476E-2,1.4181858E-1,0E0,2.6266873E-3,2.3289709E-1,2.6166439E-5,8.822608E-2,0E0,0E0,0E0,0E0,0E0,1.0833529E-1,0E0,7.98434E-4,1.9846745E-2,2.9208064E-3,0E0,0E0,0E0,0E0,0E0,0E0,0E0,0E0,0E0],"parents":[2147483647,0,0,1,1,2,2,3,3,4,4,5,5,6,6,8,8,9,9,10,10,11,11,17,17,19,19,20,20,21,21],"right_children":[2,4,6,8,10,12,14,-1,16,18,20,22,-1,-1,-1,-1,-1,24,-1,26,28,30,-1,-1,-1,-1,-1,-1,-1,-1,-1],"split_conditions":[8E-1,6E-1,5E-1,5E-1,5E-1,1E0,1E0,8.810907E-3,1E0,1E0,1E0,1E0,-5.3829025E-3,-5.091097E-3,-2.0687817E-2,1.23220375E-2,2.4559423E-2,5E-1,1.3049009E-2,5E-1,5E-1,6E-1,4.7144406E-3,-1.9350642E-3,1.0277058E-2,7.5001507E-3,3.933267E-3,-0E0,5.5781384E-3,-2.0243244E-3,-3.6681313E-3],"split_indices":[0,1,3,2,2,0,0,0,5,5,5,5,0,0,0,0,0,3,0,3,3,1,0,0,0,0,0,0,0,0,0],"split_type":[0,0,0,0,0,0,0,0,0,0,0,0,0,0,0,0,0,0,0,0,0,0,0,0,0,0,0,0,0,0,0],"sum_hessian":[1.5851445E2,8.8764114E1,6.9750336E1,1.3383719E1,7.5380394E1,6.2547447E1,7.2028933E0,9.964912E0,3.4188075E0,4.6230976E1,2.9149418E1,3.76306E1,2.4916847E1,3.1824443E0,4.020449E0,2.3165421E0,1.1022654E0,4.3345203E1,2.8857744E0,1.8465014E1,1.0684404E1,3.3435055E1,4.195545E0,4.15959E1,1.7493021E0,1.4473657E1,3.991358E0,1.7157172E0,8.968687E0,2.0577658E1,1.2857395E1],"tree_param":{"num_deleted":"0","num_feature":"6","num_nodes":"31","size_leaf_vector":"1"}},{"base_weights":[5.581976E-5,6.780892E-2,-8.557302E-2,2.1665783E-1,4.050022E-2,-6.2719196E-2,-2.7498028E-1,8.37931E-3,3.371667E-1,-7.117074E-3,5.870712E-3,-3.4850407E-2,-5.1283054E-3,-4.855428E-3,-1.9964362E-2,1.1770423E-2,2.3623321E-2,-2.5822757E-2,1.2450311E-2,-5.2209977E-2,4.4818497E-3,-1.8398989E-3,9.793192E-3,-1.9250925E-3,-3.4917407E-3],"categories":[],"categories_nodes":[],"categories_segments":[],"categories_sizes":[],"default_left":[0,0,0,0,0,0,0,0,0,0,0,0,0,0,0,0,0,0,0,0,0,0,0,0,0],"id":33,"left_children":[1,3,5,7,9,11,13,-1,15,17,-1,19,-1,-1,-1,-1,-1,21,-1,23,-1,-1,-1,-1,-1],"loss_changes":[9.186658E-1,3.4727305E-1,2.8304625E-1,4.8715353E-2,2.8193164E-1,6.2232196E-2,1.3134128E-1,0E0,1.6934574E-3,2.1127275E-1,0E0,8.006133E-2,0E0,0E0,0E0,0E0,0E0,9.839845E-2,0E0,2.4077743E-3,0E0,0E0,0E0,0E0,0E0],"parents":[2147483647,0,0,1,1,2,2,3,3,4,4,5,5,6,6,8,8,9,9,11,11,17,17,19,19],"right_children":[2,4,6,8,10,12,14,-1,16,18,-1,20,-1,-1,-1,-1,-1,22,-1,24,-1,-1,-1,-1,-1],"split_conditions":[8E-1,6E-1,5E-1,5E-1,5E-1,1E0,1E0,8.37931E-3,1E0,1E0,5.870712E-3,1E0,-5.1283054E-3,-4.855428E-3,-1.9964362E-2,1.1770423E-2,2.3623321E-2,5E-1,1.2450311E-2,6E-1,4.4818497E-3,-1.8398989E-3,9.793192E-3,-1.9250925E-3,-3.4917407E-3],"split_indices":[0,1,3,2,2,0,0,0,5,5,0,5,0,0,0,0,0,3,0,1,0,0,0,0,0],"split_type":[0,0,0,0,0,0,0,0,0,0,0,0,0,0,0,0,0,0,0,0,0,0,0,0,0],"sum_hessian":[1.5829953E2,8.871179E1,6.958774E1,1.3361152E1,7.535064E1,6.2449677E1,7.1380625E0,9.959558E0,3.4015946E0,4.61932E1,2.9157438E1,3.759684E1,2.4852835E1,3.1751153E0,3.9629471E0,2.3087416E0,1.092853E0,4.331488E1,2.8783183E0,3.3399097E1,4.1977444E0,4.1565983E1,1.7488971E0,2.0561932E1,1.2837164E1],"tree_param":{"num_deleted":"0","num_feature":"6","num_nodes":"25","size_leaf_vector":"1"}},{"base_weights":[7.4067946E-5,6.464836E-2,-8.163948E-2,2.0687695E-1,3.855735E-2,-5.9725292E-2,-2.642657E-1,7.96894E-3,3.2363188E-1,-6.6137863E-3,1.1153039E-1,-3.314008E-2,-4.885187E-3,-4.6302252E-3,-1.9258698E-2,1.1242617E-2,2.2721892E-2,-2.4472529E-2,1.1878643E-2,1.251848E-1,8.2361795E-2,-4.974261E-2,4.260895E-3,-1.7493492E-3,9.332462E-3,6.832459E-3,3.4534873E-3,-0E0,5.0086332E-3,-1.8306671E-3,-3.3235885E-3],"categories":[],"categories_nodes":[],"categories_segments":[],"categories_sizes":[],"default_left":[0,0,0,0,0,0,0,0,0,0,0,0,0,0,0,0,0,0,0,0,0,0,0,0,0,0,0,0,0,0,0],"id":34,"left_children":[1,3,5,7,9,11,13,-1,15,17,19,21,-1,-1,-1,-1,-1,23,-1,25,27,29,-1,-1,-1,-1,-1,-1,-1,-1,-1],"loss_changes":[8.34404E-1,3.1631526E-1,2.6049772E-1,4.5218706E-2,2.5393397E-1,5.6194007E-2,1.2148297E-1,0E0,8.4391236E-4,1.9164665E-1,2.476871E-4,7.266268E-2,0E0,0E0,0E0,0E0,0E0,8.93793E-2,0E0,7.195473E-4,1.7853945E-2,1.9526407E-3,0E0,0E0,0E0,0E0,0E0,0E0,0E0,0E0,0E0],"parents":[2147483647,0,0,1,1,2,2,3,3,4,4,5,5,6,6,8,8,9,9,10,10,11,11,17,17,19,19,20,20,21,21],"right_children":[2,4,6,8,10,12,14,-1,16,18,20,22,-1,-1,-1,-1,-1,24,-1,26,28,30,-1,-1,-1,-1,-1,-1,-1,-1,-1],"split_conditions":[8E-1,6E-1,5E-1,5E-1,5E-1,1E0,1E0,7.96894E-3,1E0,1E0,1E0,1E0,-4.885187E-3,-4.6302252E-3,-1.9258698E-2,1.1242617E-2,2.2721892E-2,5E-1,1.1878643E-2,5E-1,5E-1,6E-1,4.260895E-3,-1.7493492E-3,9.332462E-3,6.832459E-3,3.4534873E-3,-0E0,5.0086332E-3,-1.8306671E-3,-3.3235885E-3],"split_indices":[0,1,3,2,2,0,0,0,5,5,5,5,0,0,0,0,0,3,0,3,3,1,0,0,0,0,0,0,0,0,0],"split_type":[0,0,0,0,0,0,0,0,0,0,0,0,0,0,0,0,0,0,0,0,0,0,0,0,0,0,0,0,0,0,0],"sum_hessian":[1.5809402E2,8.866171E1,6.943231E1,1.333888E1,7.532284E1,6.235636E1,7.0759516E0,9.95411E0,3.3847694E0,4.6156925E1,2.9165909E1,3.756462E1,2.4791742E1,3.168111E0,3.9078403E0,2.301164E0,1.0836056E0,4.3285923E1,2.8710034E0,1.8474342E1,1.06915655E1,3.3364826E1,4.1997933E0,4.15375E1,1.7484252E0,1.4481261E1,3.9930818E0,1.717113E0,8.974453E0,2.0546955E1,1.281787E1],"tree_param":{"num_deleted":"0","num_feature":"6","num_nodes":"31","size_leaf_vector":"1"}},{"base_weights":[1.2196318E-4,6.1696842E-2,-7.78847E-2,1.9755176E-1,3.6775466E-2,-5.6872442E-2,-2.539116E-1,7.5787134E-3,3.1064716E-1,-6.1372267E-3,5.305951E-3,-3.151242E-2,-4.653094E-3,-4.4150827E-3,-1.8570757E-2,1.0737633E-2,2.1853507E-2,-2.3189195E-2,1.1332716E-2,-4.7393102E-2,4.050951E-3,-1.6632102E-3,8.893689E-3,-1.7408123E-3,-3.163312E-3],"categories":[],"categories_nodes":[],"categories_segments":[],"categories_sizes":[],"default_left":[0,0,0,0,0,0,0,0,0,0,0,0,0,0,0,0,0,0,0,0,0,0,0,0,0],"id":35,"left_children":[1,3,5,7,9,11,13,-1,15,17,-1,19,-1,-1,-1,-1,-1,21,-1,23,-1,-1,-1,-1,-1],"loss_changes":[7.5856113E-1,2.879061E-1,2.3964816E-1,4.194647E-2,2.294165E-1,5.0716564E-2,1.12219304E-1,0E0,7.042289E-5,1.7383353E-1,0E0,6.595728E-2,0E0,0E0,0E0,0E0,0E0,8.119255E-2,0E0,1.5498102E-3,0E0,0E0,0E0,0E0,0E0],"parents":[2147483647,0,0,1,1,2,2,3,3,4,4,5,5,6,6,8,8,9,9,11,11,17,17,19,19],"right_children":[2,4,6,8,10,12,14,-1,16,18,-1,20,-1,-1,-1,-1,-1,22,-1,24,-1,-1,-1,-1,-1],"split_conditions":[8E-1,6E-1,5E-1,5E-1,5E-1,1E0,1E0,7.5787134E-3,1E0,1E0,5.305951E-3,1E0,-4.653094E-3,-4.4150827E-3,-1.8570757E-2,1.0737633E-2,2.1853507E-2,5E-1,1.1332716E-2,6E-1,4.050951E-3,-1.6632102E-3,8.893689E-3,-1.7408123E-3,-3.163312E-3],"split_indices":[0,1,3,2,2,0,0,0,5,5,0,5,0,0,0,0,0,3,0,1,0,0,0,0,0],"split_type":[0,0,0,0,0,0,0,0,0,0,0,0,0,0,0,0,0,0,0,0,0,0,0,0,0],"sum_hessian":[1.5789508E2,8.861128E1,6.92838E1,1.3316962E1,7.529432E1,6.226733E1,7.016468E0,9.94861E0,3.3683524E0,4.612212E1,2.9172197E1,3.7533875E1,2.4733456E1,3.161419E0,3.8550494E0,2.2938128E0,1.0745397E0,4.3258278E1,2.8638434E0,3.333217E1,4.201704E0,4.151038E1,1.7478977E0,2.0532696E1,1.2799474E1],"tree_param":{"num_deleted":"0","num_feature":"6","num_nodes":"25","size_leaf_vector":"1"}},{"base_weights":[1.3536906E-4,5.8830597E-2,-7.430106E-2,1.8866034E-1,3.50139E-2,-5.415429E-2,-2.4391009E-1,7.2076106E-3,1.4909464E-2,-5.685706E-3,1.0080718E-1,-2.9963594E-2,-4.4315616E-3,-4.209561E-3,-1.7900443E-2,-2.1969229E-2,1.0811377E-2,1.1379195E-1,7.289727E-2,-4.5156162E-2,3.8514843E-3,-1.5812574E-3,8.4757665E-3,6.2271063E-3,3.0251122E-3,-0E0,4.496136E-3,-1.6553138E-3,-3.010577E-3],"categories":[],"categories_nodes":[],"categories_segments":[],"categories_sizes":[],"default_left":[0,0,0,0,0,0,0,0,0,0,0,0,0,0,0,0,0,0,0,0,0,0,0,0,0,0,0,0,0],"id":36,"left_children":[1,3,5,7,9,11,13,-1,-1,15,17,19,-1,-1,-1,21,-1,23,25,27,-1,-1,-1,-1,-1,-1,-1,-1,-1],"loss_changes":[6.89124E-1,2.6231256E-1,2.2038051E-1,3.888631E-2,2.0663017E-1,4.574953E-2,1.0352662E-1,0E0,0E0,1.5766647E-1,4.4685602E-4,5.988043E-2,0E0,0E0,0E0,7.376049E-2,0E0,6.391257E-4,1.6036805E-2,1.1942387E-3,0E0,0E0,0E0,0E0,0E0,0E0,0E0,0E0,0E0],"parents":[2147483647,0,0,1,1,2,2,3,3,4,4,5,5,6,6,9,9,10,10,11,11,15,15,17,17,18,18,19,19],"right_children":[2,4,6,8,10,12,14,-1,-1,16,18,20,-1,-1,-1,22,-1,24,26,28,-1,-1,-1,-1,-1,-1,-1,-1,-1],"split_conditions":[8E-1,6E-1,5E-1,5E-1,5E-1,1E0,1E0,7.2076106E-3,1.4909464E-2,1E0,1E0,1E0,-4.4315616E-3,-4.209561E-3,-1.7900443E-2,5E-1,1.0811377E-2,5E-1,5E-1,6E-1,3.8514843E-3,-1.5812574E-3,8.4757665E-3,6.2271063E-3,3.0251122E-3,-0E0,4.496136E-3,-1.6553138E-3,-3.010577E-3],"split_indices":[0,1,3,2,2,0,0,0,0,5,5,5,0,0,0,3,0,3,3,1,0,0,0,0,0,0,0,0,0],"split_type":[0,0,0,0,0,0,0,0,0,0,0,0,0,0,0,0,0,0,0,0,0,0,0,0,0,0,0,0,0],"sum_hessian":[1.577051E2,8.8563194E1,6.914191E1,1.329545E1,7.5267746E1,6.218239E1,6.95952E0,9.943091E0,3.3523586E0,4.6088737E1,2.9179007E1,3.7504536E1,2.4677853E1,3.1550255E0,3.8044941E0,4.3231884E1,2.8568504E0,1.8481508E1,1.0697498E1,3.330105E1,4.203486E0,4.1484562E1,1.7473246E0,1.4487048E1,3.9944599E0,1.7183508E0,8.979148E0,2.0519115E1,1.2781935E1],"tree_param":{"num_deleted":"0","num_feature":"6","num_nodes":"29","size_leaf_vector":"1"}},{"base_weights":[1.4906153E-4,5.6106452E-2,-7.088119E-2,1.7988068E-1,3.3397105E-2,-5.156464E-2,-2.3425376E-1,6.854668E-3,2.8508297E-1,-5.2579767E-3,9.591788E-2,-2.8489722E-2,-4.220144E-3,-4.0132795E-3,-1.7247684E-2,9.582166E-3,2.044473E-2,-2.0809555E-2,1.0313484E-2,1.082687E-1,6.91455E-2,-4.3026306E-2,3.661925E-3,-1.5032915E-3,8.07765E-3,5.916814E-3,2.877246E-3,-0E0,4.272873E-3,-1.5739547E-3,-2.865028E-3],"categories":[],"categories_nodes":[],"categories_segments":[],"categories_sizes":[],"default_left":[0,0,0,0,0,0,0,0,0,0,0,0,0,0,0,0,0,0,0,0,0,0,0,0,0,0,0,0,0,0,0],"id":37,"left_children":[1,3,5,7,9,11,13,-1,15,17,19,21,-1,-1,-1,-1,-1,23,-1,25,27,29,-1,-1,-1,-1,-1,-1,-1,-1,-1],"loss_changes":[6.261491E-1,2.3781547E-1,2.0258665E-1,3.5182476E-2,1.8666258E-1,4.1247353E-2,9.538111E-2,0E0,1.8897355E-3,1.4299288E-1,6.368756E-5,5.4371994E-2,0E0,0E0,0E0,0E0,0E0,6.701298E-2,0E0,1.5437603E-5,1.4685679E-2,8.8118017E-4,0E0,0E0,0E0,0E0,0E0,0E0,0E0,0E0,0E0],"parents":[2147483647,0,0,1,1,2,2,3,3,4,4,5,5,6,6,8,8,9,9,10,10,11,11,17,17,19,19,20,20,21,21],"right_children":[2,4,6,8,10,12,14,-1,16,18,20,22,-1,-1,-1,-1,-1,24,-1,26,28,30,-1,-1,-1,-1,-1,-1,-1,-1,-1],"split_conditions":[8E-1,6E-1,5E-1,5E-1,5E-1,1E0,1E0,6.854668E-3,1E0,1E0,1E0,1E0,-4.220144E-3,-4.0132795E-3,-1.7247684E-2,9.582166E-3,2.044473E-2,5E-1,1.0313484E-2,5E-1,5E-1,6E-1,3.661925E-3,-1.5032915E-3,8.07765E-3,5.916814E-3,2.877246E-3,-0E0,4.272873E-3,-1.5739547E-3,-2.865028E-3],"split_indices":[0,1,3,2,2,0,0,0,5,5,5,5,0,0,0,0,0,3,0,3,3,1,0,0,0,0,0,0,0,0,0],"split_type":[0,0,0,0,0,0,0,0,0,0,0,0,0,0,0,0,0,0,0,0,0,0,0,0,0,0,0,0,0,0,0],"sum_hessian":[1.5752078E2,8.851438E1,6.900639E1,1.3273753E1,7.524063E1,6.210138E1,6.905017E0,9.937582E0,3.3361716E0,4.605673E1,2.91839E1,3.747655E1,2.4624825E1,3.148919E0,3.7560978E0,2.276637E0,1.0595345E0,4.3206696E1,2.8500319E0,1.8484505E1,1.0699397E1,3.3271404E1,4.205149E0,4.145998E1,1.7467144E0,1.4489604E1,3.9949007E0,1.7183508E0,8.981046E0,2.0506186E1,1.2765218E1],"tree_param":{"num_deleted":"0","num_feature":"6","num_nodes":"31","size_leaf_vector":"1"}},{"base_weights":[1.8741615E-4,5.3559344E-2,-6.76183E-2,1.7181051E-1,3.185843E-2,-4.909793E-2,-2.2493462E-1,6.5189945E-3,2.7366537E-1,-4.852901E-3,4.5636804E-3,-6.1878663E-2,-0E0,-3.8258347E-3,-1.661238E-2,9.149138E-3,1.965877E-2,-1.9707387E-2,9.838006E-3,-1.0745686E-2,-5.5689197E-3,-1.4291302E-3,7.698378E-3,-1.4965617E-3,3.4817923E-3],"categories":[],"categories_nodes":[],"categories_segments":[],"categories_sizes":[],"default_left":[0,0,0,0,0,0,0,0,0,0,0,0,0,0,0,0,0,0,0,0,0,0,0,0,0],"id":38,"left_children":[1,3,5,7,9,11,13,-1,15,17,-1,19,-1,-1,-1,-1,-1,21,-1,23,-1,-1,-1,-1,-1],"loss_changes":[5.6943834E-1,2.1654737E-1,1.8616238E-1,3.2579035E-2,1.6864154E-1,3.8568497E-2,8.775911E-2,0E0,1.0737479E-3,1.2967612E-1,0E0,1.1826305E-1,0E0,0E0,0E0,0E0,0E0,6.088684E-2,0E0,3.6469754E-2,0E0,0E0,0E0,0E0,0E0],"parents":[2147483647,0,0,1,1,2,2,3,3,4,4,5,5,6,6,8,8,9,9,11,11,17,17,19,19],"right_children":[2,4,6,8,10,12,14,-1,16,18,-1,20,-1,-1,-1,-1,-1,22,-1,24,-1,-1,-1,-1,-1],"split_conditions":[8E-1,6E-1,5E-1,5E-1,5E-1,6E-1,1E0,6.5189945E-3,1E0,1E0,4.5636804E-3,1E0,-0E0,-3.8258347E-3,-1.661238E-2,9.149138E-3,1.965877E-2,5E-1,9.838006E-3,1E0,-5.5689197E-3,-1.4291302E-3,7.698378E-3,-1.4965617E-3,3.4817923E-3],"split_indices":[0,1,3,2,2,1,0,0,5,5,0,0,0,0,0,0,0,3,0,5,0,0,0,0,0],"split_type":[0,0,0,0,0,0,0,0,0,0,0,0,0,0,0,0,0,0,0,0,0,0,0,0,0],"sum_hessian":[1.5734445E2,8.846746E1,6.8877E1,1.3253205E1,7.521425E1,6.2024128E1,6.8528705E0,9.932107E0,3.321098E0,4.602606E1,2.9188194E1,4.9084347E1,1.2939783E1,3.1430886E0,3.709782E0,2.2700784E0,1.0510197E0,4.3182663E1,2.843396E0,2.470058E1,2.4383764E1,4.143659E1,1.7460746E0,2.0493877E1,4.2067027E0],"tree_param":{"num_deleted":"0","num_feature":"6","num_nodes":"25","size_leaf_vector":"1"}},{"base_weights":[2.0950062E-4,5.1084664E-2,-6.44761E-2,1.6411489E-1,3.033605E-2,-4.671493E-2,-2.1594514E-1,6.1997287E-3,2.627104E-1,-4.469478E-3,8.671063E-2,-5.888768E-2,-0E0,-3.6468704E-3,-1.5994431E-2,8.734926E-3,1.8900981E-2,-1.8660069E-2,9.383921E-3,4.9236002E-3,6.1043527E-2,-1.010418E-2,-5.306361E-3,-1.3585982E-3,7.337009E-3,-0E0,3.8343656E-3,-1.4229248E-3,3.3106E-3],"categories":[],"categories_nodes":[],"categories_segments":[],"categories_sizes":[],"default_left":[0,0,0,0,0,0,0,0,0,0,0,0,0,0,0,0,0,0,0,0,0,0,0,0,0,0,0,0,0],"id":39,"left_children":[1,3,5,7,9,11,13,-1,15,17,19,21,-1,-1,-1,-1,-1,23,-1,-1,25,27,-1,-1,-1,-1,-1,-1,-1],"loss_changes":[5.172296E-1,1.9738542E-1,1.7108458E-1,3.0149013E-2,1.5188041E-1,3.488849E-2,8.063656E-2,0E0,3.309846E-4,1.17590755E-1,2.6611984E-4,1.0725056E-1,0E0,0E0,0E0,0E0,0E0,5.5324387E-2,0E0,0E0,1.316677E-2,3.3025324E-2,0E0,0E0,0E0,0E0,0E0,0E0,0E0],"parents":[2147483647,0,0,1,1,2,2,3,3,4,4,5,5,6,6,8,8,9,9,10,10,11,11,17,17,20,20,21,21],"right_children":[2,4,6,8,10,12,14,-1,16,18,20,22,-1,-1,-1,-1,-1,24,-1,-1,26,28,-1,-1,-1,-1,-1,-1,-1],"split_conditions":[8E-1,6E-1,5E-1,5E-1,5E-1,6E-1,1E0,6.1997287E-3,1E0,1E0,1E0,1E0,-0E0,-3.6468704E-3,-1.5994431E-2,8.734926E-3,1.8900981E-2,5E-1,9.383921E-3,4.9236002E-3,5E-1,1E0,-5.306361E-3,-1.3585982E-3,7.337009E-3,-0E0,3.8343656E-3,-1.4229248E-3,3.3106E-3],"split_indices":[0,1,3,2,2,1,0,0,5,5,5,0,0,0,0,0,0,3,0,0,3,5,0,0,0,0,0,0,0],"split_type":[0,0,0,0,0,0,0,0,0,0,0,0,0,0,0,0,0,0,0,0,0,0,0,0,0,0,0,0,0],"sum_hessian":[1.571735E2,8.8422935E1,6.875056E1,1.3233158E1,7.518977E1,6.1947563E1,6.802992E0,9.926688E0,3.3064694E0,4.5996685E1,2.919309E1,4.9007782E1,1.2939783E1,3.1375215E0,3.6654704E0,2.2637455E0,1.0427238E0,4.3159737E1,2.836947E0,1.848918E1,1.070391E1,2.4690315E1,2.4317465E1,4.1414326E1,1.7454123E0,1.7193967E0,8.984513E0,2.048216E1,4.2081547E0],"tree_param":{"num_deleted":"0","num_feature":"6","num_nodes":"29","size_leaf_vector":"1"}},{"base_weights":[2.3678015E-4,4.874194E-2,-6.1478794E-2,1.5677644E-1,2.8902652E-2,-4.444534E-2,-2.0727731E-1,5.896059E-3,1.2610003E-2,-4.106296E-3,4.1208486E-3,-3.613202E-2,-6.3611604E-3,-3.4760132E-3,-1.5393716E-2,-1.7664613E-2,8.95027E-3,-4.658958E-2,-0E0,-1.2915061E-3,6.9926786E-3,-1.3528772E-3,-3.0650508E-3],"categories":[],"categories_nodes":[],"categories_segments":[],"categories_sizes":[],"default_left":[0,0,0,0,0,0,0,0,0,0,0,0,0,0,0,0,0,0,0,0,0,0,0],"id":40,"left_children":[1,3,5,7,9,11,13,-1,-1,15,-1,17,-1,-1,-1,19,-1,21,-1,-1,-1,-1,-1],"loss_changes":[4.699709E-1,1.7990181E-1,1.5717977E-1,2.7883083E-2,1.3690153E-1,3.4020856E-2,7.3990285E-2,0E0,0E0,1.0662294E-1,0E0,2.1227896E-2,0E0,0E0,0E0,5.0273318E-2,0E0,8.078694E-3,0E0,0E0,0E0,0E0,0E0],"parents":[2147483647,0,0,1,1,2,2,3,3,4,4,5,5,6,6,9,9,11,11,15,15,17,17],"right_children":[2,4,6,8,10,12,14,-1,-1,16,-1,18,-1,-1,-1,20,-1,22,-1,-1,-1,-1,-1],"split_conditions":[8E-1,6E-1,5E-1,5E-1,5E-1,1E0,1E0,5.896059E-3,1.2610003E-2,1E0,4.1208486E-3,6E-1,-6.3611604E-3,-3.4760132E-3,-1.5393716E-2,5E-1,8.95027E-3,1E0,-0E0,-1.2915061E-3,6.9926786E-3,-1.3528772E-3,-3.0650508E-3],"split_indices":[0,1,3,2,2,5,0,0,0,5,0,1,0,0,0,3,0,0,0,0,0,0,0],"split_type":[0,0,0,0,0,0,0,0,0,0,0,0,0,0,0,0,0,0,0,0,0,0,0],"sum_hessian":[1.5700853E2,8.837873E1,6.862979E1,1.3213633E1,7.51651E1,6.1874496E1,6.7552958E0,9.921344E0,3.2922883E0,4.5968555E1,2.9196543E1,5.6907043E1,4.9674554E0,3.1322074E0,3.6230884E0,4.3137867E1,2.8306885E0,4.396726E1,1.2939783E1,4.1393135E1,1.7447333E0,2.047101E1,2.3496248E1],"tree_param":{"num_deleted":"0","num_feature":"6","num_nodes":"23","size_leaf_vector":"1"}},{"base_weights":[1.9421488E-4,4.645539E-2,-5.8686636E-2,1.4949276E-1,2.7524155E-2,-4.2362645E-2,-1.9892326E-1,5.6072213E-3,2.4100894E-1,-3.7624782E-3,7.8299336E-2,-3.4411717E-2,-6.0555143E-3,-3.3129212E-3,-1.48101E-2,7.765617E-3,1.768158E-2,-1.6718687E-2,8.536164E-3,8.945784E-2,5.3752165E-2,-4.4374548E-2,-0E0,-1.2276991E-3,6.6645606E-3,4.9449313E-3,2.0718384E-3,-0E0,3.4398455E-3,-1.2862411E-3,-2.9169384E-3],"categories":[],"categories_nodes":[],"categories_segments":[],"categories_sizes":[],"default_left":[0,0,0,0,0,0,0,0,0,0,0,0,0,0,0,0,0,0,0,0,0,0,0,0,0,0,0,0,0,0,0],"id":41,"left_children":[1,3,5,7,9,11,13,-1,15,17,19,21,-1,-1,-1,-1,-1,23,-1,25,27,29,-1,-1,-1,-1,-1,-1,-1,-1,-1],"loss_changes":[4.2722917E-1,1.632433E-1,1.4420947E-1,2.5078177E-2,1.232847E-1,3.0578434E-2,6.779677E-2,0E0,1.6621202E-3,9.667033E-2,3.8433075E-4,1.923088E-2,0E0,0E0,0E0,0E0,0E0,4.568646E-2,0E0,1.0025799E-3,1.1783969E-2,7.111132E-3,0E0,0E0,0E0,0E0,0E0,0E0,0E0,0E0,0E0],"parents":[2147483647,0,0,1,1,2,2,3,3,4,4,5,5,6,6,8,8,9,9,10,10,11,11,17,17,19,19,20,20,21,21],"right_children":[2,4,6,8,10,12,14,-1,16,18,20,22,-1,-1,-1,-1,-1,24,-1,26,28,30,-1,-1,-1,-1,-1,-1,-1,-1,-1],"split_conditions":[8E-1,6E-1,5E-1,5E-1,5E-1,1E0,1E0,5.6072213E-3,1E0,1E0,1E0,6E-1,-6.0555143E-3,-3.3129212E-3,-1.48101E-2,7.765617E-3,1.768158E-2,5E-1,8.536164E-3,5E-1,5E-1,1E0,-0E0,-1.2276991E-3,6.6645606E-3,4.9449313E-3,2.0718384E-3,-0E0,3.4398455E-3,-1.2862411E-3,-2.9169384E-3],"split_indices":[0,1,3,2,2,5,0,0,5,5,5,1,0,0,0,0,0,3,0,3,3,0,0,0,0,0,0,0,0,0,0],"split_type":[0,0,0,0,0,0,0,0,0,0,0,0,0,0,0,0,0,0,0,0,0,0,0,0,0,0,0,0,0,0,0],"sum_hessian":[1.5686923E2,8.83361E1,6.8533134E1,1.3194015E1,7.514208E1,6.1823433E1,6.7096987E0,9.916088E0,3.277926E0,4.594164E1,2.9200445E1,5.686098E1,4.9624534E0,3.1271355E0,3.582563E0,2.248709E0,1.0292171E0,4.3117016E1,2.8246226E0,1.849278E1,1.0707664E1,4.3921196E1,1.2939783E1,4.137297E1,1.7440429E0,1.44958E1,3.9969814E0,1.7203269E0,8.987337E0,2.0460398E1,2.34608E1],"tree_param":{"num_deleted":"0","num_feature":"6","num_nodes":"31","size_leaf_vector":"1"}},{"base_weights":[2.0000563E-4,4.43621E-2,-5.602491E-2,1.4283322E-1,2.6258906E-2,-4.0380135E-2,-1.9087534E-1,5.332471E-3,2.3138559E-1,-3.4371058E-3,7.4508764E-2,-3.27745E-2,-5.764379E-3,-3.1572704E-3,-1.4243448E-2,7.4118637E-3,1.6994463E-2,-1.581993E-2,8.140712E-3,8.515093E-2,5.08861E-2,-4.2265534E-2,-0E0,-1.1670215E-3,6.351862E-3,4.6990174E-3,1.9706513E-3,-0E0,3.269323E-3,-1.2228573E-3,-2.7757937E-3],"categories":[],"categories_nodes":[],"categories_segments":[],"categories_sizes":[],"default_left":[0,0,0,0,0,0,0,0,0,0,0,0,0,0,0,0,0,0,0,0,0,0,0,0,0,0,0,0,0,0,0],"id":42,"left_children":[1,3,5,7,9,11,13,-1,15,17,19,21,-1,-1,-1,-1,-1,23,-1,25,27,29,-1,-1,-1,-1,-1,-1,-1,-1,-1],"loss_changes":[3.8908896E-1,1.4874594E-1,1.3226745E-1,2.316776E-2,1.1135488E-1,2.7470231E-2,6.2033117E-2,0E0,9.110272E-4,8.763898E-2,1.3147295E-4,1.7421491E-2,0E0,0E0,0E0,0E0,0E0,4.152082E-2,0E0,4.6896935E-4,1.0868503E-2,6.2427744E-3,0E0,0E0,0E0,0E0,0E0,0E0,0E0,0E0,0E0],"parents":[2147483647,0,0,1,1,2,2,3,3,4,4,5,5,6,6,8,8,9,9,10,10,11,11,17,17,19,19,20,20,21,21],"right_children":[2,4,6,8,10,12,14,-1,16,18,20,22,-1,-1,-1,-1,-1,24,-1,26,28,30,-1,-1,-1,-1,-1,-1,-1,-1,-1],"split_conditions":[8E-1,6E-1,5E-1,5E-1,5E-1,1E0,1E0,5.332471E-3,1E0,1E0,1E0,6E-1,-5.764379E-3,-3.1572704E-3,-1.4243448E-2,7.4118637E-3,1.6994463E-2,5E-1,8.140712E-3,5E-1,5E-1,1E0,-0E0,-1.1670215E-3,6.351862E-3,4.6990174E-3,1.9706513E-3,-0E0,3.269323E-3,-1.2228573E-3,-2.7757937E-3],"split_indices":[0,1,3,2,2,5,0,0,5,5,5,1,0,0,0,0,0,3,0,3,3,0,0,0,0,0,0,0,0,0,0],"split_type":[0,0,0,0,0,0,0,0,0,0,0,0,0,0,0,0,0,0,0,0,0,0,0,0,0,0,0,0,0,0,0],"sum_hessian":[1.5673528E2,8.829443E1,6.844085E1,1.3175615E1,7.511882E1,6.177473E1,6.6661177E0,9.910934E0,3.2646806E0,4.5915886E1,2.9202932E1,5.681712E1,4.957611E0,3.1222951E0,3.5438223E0,2.2431488E0,1.0215319E0,4.3097134E1,2.8187506E0,1.8494137E1,1.07087965E1,4.3877335E1,1.2939783E1,4.135379E1,1.7433455E0,1.4496932E1,3.9972045E0,1.7203269E0,8.98847E0,2.0450298E1,2.3427038E1],"tree_param":{"num_deleted":"0","num_feature":"6","num_nodes":"31","size_leaf_vector":"1"}},{"base_weights":[2.0489415E-4,4.2369194E-2,-5.348774E-2,1.3648301E-1,2.5054835E-2,-3.8493082E-2,-1.8312542E-1,5.3745545E-3,1.2267415E-2,-3.128975E-3,3.5453537E-3,-3.121644E-2,-5.4870658E-3,-3.008732E-3,-1.3693586E-2,-1.496581E-2,7.763126E-3,-4.025762E-2,-0E0,-1.109312E-3,6.053859E-3,-1.1625687E-3,-2.6413035E-3],"categories":[],"categories_nodes":[],"categories_segments":[],"categories_sizes":[],"default_left":[0,0,0,0,0,0,0,0,0,0,0,0,0,0,0,0,0,0,0,0,0,0,0],"id":43,"left_children":[1,3,5,7,9,11,13,-1,-1,15,-1,17,-1,-1,-1,19,-1,21,-1,-1,-1,-1,-1],"loss_changes":[3.5444126E-1,1.3555594E-1,1.21277615E-1,2.1565095E-2,1.0058661E-1,2.4664283E-2,5.6676835E-2,0E0,0E0,7.9444416E-2,0E0,1.5782222E-2,0E0,0E0,0E0,3.7737522E-2,0E0,5.4641813E-3,0E0,0E0,0E0,0E0,0E0],"parents":[2147483647,0,0,1,1,2,2,3,3,4,4,5,5,6,6,9,9,11,11,15,15,17,17],"right_children":[2,4,6,8,10,12,14,-1,-1,16,-1,18,-1,-1,-1,20,-1,22,-1,-1,-1,-1,-1],"split_conditions":[8E-1,6E-1,5E-1,1E0,5E-1,1E0,1E0,5.3745545E-3,1.2267415E-2,1E0,3.5453537E-3,6E-1,-5.4870658E-3,-3.008732E-3,-1.3693586E-2,5E-1,7.763126E-3,1E0,-0E0,-1.109312E-3,6.053859E-3,-1.1625687E-3,-2.6413035E-3],"split_indices":[0,1,3,5,2,5,0,0,0,5,0,1,0,0,0,3,0,0,0,0,0,0,0],"split_type":[0,0,0,0,0,0,0,0,0,0,0,0,0,0,0,0,0,0,0,0,0,0,0],"sum_hessian":[1.5660686E2,8.82541E1,6.835276E1,1.3157768E1,7.509633E1,6.1728283E1,6.624474E0,1.0910274E1,2.2474945E0,4.589125E1,2.9205076E1,5.6775356E1,4.952929E0,3.1176777E0,3.5067966E0,4.307818E1,2.8130724E0,4.383557E1,1.2939783E1,4.1335533E1,1.7426454E0,2.0440685E1,2.3394888E1],"tree_param":{"num_deleted":"0","num_feature":"6","num_nodes":"23","size_leaf_vector":"1"}},{"base_weights":[1.6430729E-4,4.0391445E-2,-5.106949E-2,1.3013831E-1,2.386366E-2,-3.6696933E-2,-1.756657E-1,4.7656926E-3,1.0773403E-2,-2.8373906E-3,6.736734E-2,-2.9733712E-2,-5.222938E-3,-2.866999E-3,-1.3160343E-2,-1.4787266E-2,6.9751665E-3,7.7528484E-2,4.4642344E-2,-3.8345996E-2,-0E0,-1.0544364E-3,6.32523E-3,4.2891614E-3,1.7013429E-3,-9.496841E-6,2.9316372E-3,-1.1052318E-3,-2.513154E-3],"categories":[],"categories_nodes":[],"categories_segments":[],"categories_sizes":[],"default_left":[0,0,0,0,0,0,0,0,0,0,0,0,0,0,0,0,0,0,0,0,0,0,0,0,0,0,0,0,0],"id":44,"left_children":[1,3,5,7,9,11,13,-1,-1,15,17,19,-1,-1,-1,21,-1,23,25,27,-1,-1,-1,-1,-1,-1,-1,-1,-1],"loss_changes":[3.2239532E-1,1.2299259E-1,1.1116956E-1,2.175723E-2,9.056908E-2,2.2131994E-2,5.170591E-2,0E0,0E0,7.2159424E-2,3.1289458E-4,1.4297098E-2,0E0,0E0,0E0,3.3122327E-2,0E0,3.953874E-4,9.704573E-3,4.766524E-3,0E0,0E0,0E0,0E0,0E0,0E0,0E0,0E0,0E0],"parents":[2147483647,0,0,1,1,2,2,3,3,4,4,5,5,6,6,9,9,10,10,11,11,15,15,17,17,18,18,19,19],"right_children":[2,4,6,8,10,12,14,-1,-1,16,18,20,-1,-1,-1,22,-1,24,26,28,-1,-1,-1,-1,-1,-1,-1,-1,-1],"split_conditions":[8E-1,6E-1,5E-1,5E-1,5E-1,1E0,1E0,4.7656926E-3,1.0773403E-2,5E-1,1E0,6E-1,-5.222938E-3,-2.866999E-3,-1.3160343E-2,1E0,6.9751665E-3,5E-1,5E-1,1E0,-0E0,-1.0544364E-3,6.32523E-3,4.2891614E-3,1.7013429E-3,-9.496841E-6,2.9316372E-3,-1.1052318E-3,-2.513154E-3],"split_indices":[0,1,3,2,2,5,0,0,0,3,5,1,0,0,0,5,0,3,3,0,0,0,0,0,0,0,0,0,0],"split_type":[0,0,0,0,0,0,0,0,0,0,0,0,0,0,0,0,0,0,0,0,0,0,0,0,0,0,0,0,0],"sum_hessian":[1.5648645E2,8.8217766E1,6.8268684E1,1.3142206E1,7.507556E1,6.1684E1,6.584689E0,9.899657E0,3.242549E0,4.5867702E1,2.9207857E1,5.673559E1,4.9484067E0,3.1132717E0,3.4714177E0,4.2721962E1,3.1457388E0,1.8496181E1,1.0711675E1,4.379581E1,1.2939783E1,4.131817E1,1.4037933E0,1.4498425E1,3.9977574E0,1.7211158E0,8.99056E0,2.0431541E1,2.3364267E1],"tree_param":{"num_deleted":"0","num_feature":"6","num_nodes":"29","size_leaf_vector":"1"}},{"base_weights":[1.444143E-4,3.854422E-2,-4.8764873E-2,1.2410702E-1,2.2771463E-2,-3.498749E-2,-1.6848822E-1,4.8206076E-3,1.138689E-2,-2.5610747E-3,6.41111E-2,-2.832284E-2,-4.9713785E-3,-2.7317784E-3,-1.2643523E-2,-1.3431889E-2,7.09339E-3,3.6907808E-3,4.220265E-2,-3.6526296E-2,-0E0,-1.0022499E-3,5.4425965E-3,-9.041908E-6,2.7864035E-3,-1.0506928E-3,-2.39108E-3],"categories":[],"categories_nodes":[],"categories_segments":[],"categories_sizes":[],"default_left":[0,0,0,0,0,0,0,0,0,0,0,0,0,0,0,0,0,0,0,0,0,0,0,0,0,0,0],"id":45,"left_children":[1,3,5,7,9,11,13,-1,-1,15,17,19,-1,-1,-1,21,-1,-1,23,25,-1,-1,-1,-1,-1,-1,-1],"loss_changes":[2.9354107E-1,1.1151241E-1,1.0187678E-1,1.9552425E-2,8.179909E-2,1.9847162E-2,4.709877E-2,0E0,0E0,6.590606E-2,1.1906773E-4,1.2951788E-2,0E0,0E0,0E0,3.066636E-2,0E0,0E0,8.976685E-3,4.142426E-3,0E0,0E0,0E0,0E0,0E0,0E0,0E0],"parents":[2147483647,0,0,1,1,2,2,3,3,4,4,5,5,6,6,9,9,10,10,11,11,15,15,18,18,19,19],"right_children":[2,4,6,8,10,12,14,-1,-1,16,18,20,-1,-1,-1,22,-1,-1,24,26,-1,-1,-1,-1,-1,-1,-1],"split_conditions":[8E-1,6E-1,5E-1,1E0,5E-1,1E0,1E0,4.8206076E-3,1.138689E-2,1E0,1E0,6E-1,-4.9713785E-3,-2.7317784E-3,-1.2643523E-2,5E-1,7.09339E-3,3.6907808E-3,5E-1,1E0,-0E0,-1.0022499E-3,5.4425965E-3,-9.041908E-6,2.7864035E-3,-1.0506928E-3,-2.39108E-3],"split_indices":[0,1,3,5,2,5,0,0,0,5,5,1,0,0,0,3,0,0,3,0,0,0,0,0,0,0,0],"split_type":[0,0,0,0,0,0,0,0,0,0,0,0,0,0,0,0,0,0,0,0,0,0,0,0,0,0,0],"sum_hessian":[1.5636824E2,8.817977E1,6.818847E1,1.3124759E1,7.505501E1,6.164178E1,6.546688E0,1.0889977E1,2.2347813E0,4.5845585E1,2.9209429E1,5.669774E1,4.9440427E0,3.109069E0,3.437619E0,4.304275E1,2.802833E0,1.8496922E1,1.0712507E1,4.3757957E1,1.2939783E1,4.130165E1,1.7411005E0,1.7211137E0,8.991393E0,2.0422838E1,2.3335117E1],"tree_param":{"num_deleted":"0","num_feature":"6","num_nodes":"27","size_leaf_vector":"1"}},{"base_weights":[1.08662236E-4,3.675598E-2,-4.6568755E-2,1.1834841E-1,2.1696089E-2,-3.3360653E-2,-1.6158503E-1,4.2555975E-3,9.984631E-3,-2.2998238E-3,3.046225E-3,-2.6980434E-2,-4.731785E-3,-2.602781E-3,-1.2142911E-2,-1.2696936E-2,6.7631938E-3,-3.479425E-2,-0E0,-9.526252E-4,5.1872414E-3,-9.988255E-4,-2.2748006E-3],"categories":[],"categories_nodes":[],"categories_segments":[],"categories_sizes":[],"default_left":[0,0,0,0,0,0,0,0,0,0,0,0,0,0,0,0,0,0,0,0,0,0,0],"id":46,"left_children":[1,3,5,7,9,11,13,-1,-1,15,-1,17,-1,-1,-1,19,-1,21,-1,-1,-1,-1,-1],"loss_changes":[2.6714522E-1,1.01174206E-1,9.3337566E-2,1.9775048E-2,7.367139E-2,1.7785974E-2,4.2834565E-2,0E0,0E0,5.9726972E-2,0E0,1.1733238E-2,0E0,0E0,0E0,2.7878849E-2,0E0,3.5845824E-3,0E0,0E0,0E0,0E0,0E0],"parents":[2147483647,0,0,1,1,2,2,3,3,4,4,5,5,6,6,9,9,11,11,15,15,17,17],"right_children":[2,4,6,8,10,12,14,-1,-1,16,-1,18,-1,-1,-1,20,-1,22,-1,-1,-1,-1,-1],"split_conditions":[8E-1,6E-1,5E-1,5E-1,5E-1,1E0,1E0,4.2555975E-3,9.984631E-3,1E0,3.046225E-3,6E-1,-4.731785E-3,-2.602781E-3,-1.2142911E-2,5E-1,6.7631938E-3,1E0,-0E0,-9.526252E-4,5.1872414E-3,-9.988255E-4,-2.2748006E-3],"split_indices":[0,1,3,2,2,5,0,0,0,5,0,1,0,0,0,3,0,0,0,0,0,0,0],"split_type":[0,0,0,0,0,0,0,0,0,0,0,0,0,0,0,0,0,0,0,0,0,0,0],"sum_hessian":[1.5625705E2,8.81451E1,6.811194E1,1.3110152E1,7.503496E1,6.1601543E1,6.5103974E0,9.888933E0,3.2212193E0,4.5824055E1,2.92109E1,5.6661705E1,4.939835E0,3.1050608E0,3.4053366E0,4.302635E1,2.797708E0,4.3721924E1,1.2939783E1,4.1285934E1,1.7404121E0,2.041456E1,2.3307364E1],"tree_param":{"num_deleted":"0","num_feature":"6","num_nodes":"23","size_leaf_vector":"1"}},{"base_weights":[7.163899E-5,3.5049915E-2,-4.447624E-2,1.1287303E-1,2.0668412E-2,-3.1812545E-2,-1.5494832E-1,4.320892E-3,1.0572111E-2,-2.0527698E-3,5.7884667E-2,-4.0123597E-2,-0E0,-2.4797358E-3,-1.1658289E-2,-1.2561112E-2,6.0719755E-3,6.711033E-2,3.6860667E-2,-0E0,-4.1430895E-3,-9.0544857E-4,5.4119076E-3,3.7412897E-3,1.2894598E-3,-1.5254205E-4,2.4975194E-3,-9.4950537E-4,5.0492524E-3],"categories":[],"categories_nodes":[],"categories_segments":[],"categories_sizes":[],"default_left":[0,0,0,0,0,0,0,0,0,0,0,0,0,0,0,0,0,0,0,0,0,0,0,0,0,0,0,0,0],"id":47,"left_children":[1,3,5,7,9,11,13,-1,-1,15,17,19,-1,-1,-1,21,-1,23,25,27,-1,-1,-1,-1,-1,-1,-1,-1,-1],"loss_changes":[2.4315313E-1,9.18156E-2,8.54944E-2,1.7684728E-2,6.6321656E-2,1.6034473E-2,3.889297E-2,0E0,0E0,5.4277543E-2,2.3961067E-4,8.720015E-2,0E0,0E0,0E0,2.4351351E-2,0E0,7.055849E-4,8.010154E-3,5.1168025E-2,0E0,0E0,0E0,0E0,0E0,0E0,0E0,0E0,0E0],"parents":[2147483647,0,0,1,1,2,2,3,3,4,4,5,5,6,6,9,9,10,10,11,11,15,15,17,17,18,18,19,19],"right_children":[2,4,6,8,10,12,14,-1,-1,16,18,20,-1,-1,-1,22,-1,24,26,28,-1,-1,-1,-1,-1,-1,-1,-1,-1],"split_conditions":[8E-1,6E-1,5E-1,1E0,5E-1,6E-1,1E0,4.320892E-3,1.0572111E-2,5E-1,1E0,1E0,-0E0,-2.4797358E-3,-1.1658289E-2,1E0,6.0719755E-3,5E-1,5E-1,1E0,-4.1430895E-3,-9.0544857E-4,5.4119076E-3,3.7412897E-3,1.2894598E-3,-1.5254205E-4,2.4975194E-3,-9.4950537E-4,5.0492524E-3],"split_indices":[0,1,3,5,2,1,0,0,0,3,5,0,0,0,0,5,0,3,3,5,0,0,0,0,0,0,0,0,0],"split_type":[0,0,0,0,0,0,0,0,0,0,0,0,0,0,0,0,0,0,0,0,0,0,0,0,0,0,0,0,0],"sum_hessian":[1.5614906E2,8.811012E1,6.803894E1,1.30937805E1,7.501634E1,6.1563194E1,6.4757466E0,1.0871016E1,2.2227643E0,4.580349E1,2.9212854E1,4.862341E1,1.2939783E1,3.1012383E0,3.3745084E0,4.2667492E1,3.1359975E0,1.8498137E1,1.0714719E1,2.4598988E1,2.4024424E1,4.127099E1,1.3965037E0,1.4499651E1,3.998485E0,1.7217815E0,8.992938E0,2.0406683E1,4.1923037E0],"tree_param":{"num_deleted":"0","num_feature":"6","num_nodes":"29","size_leaf_vector":"1"}},{"base_weights":[9.24687E-5,3.3460885E-2,-4.2410497E-2,1.07646994E-1,1.9730441E-2,-3.025616E-2,-1.485703E-1,3.7966997E-3,9.254965E-3,-1.8186959E-3,5.5099245E-2,-2.368644E-2,-4.6824967E-3,-2.3623772E-3,-1.118942E-2,-1.13811E-2,6.1800643E-3,6.391514E-2,3.4806512E-2,-3.0541673E-2,-0E0,-8.6058705E-4,4.6589035E-3,3.5554536E-3,1.2265169E-3,-1.453337E-4,2.3738693E-3,-9.026003E-4,-1.962038E-3],"categories":[],"categories_nodes":[],"categories_segments":[],"categories_sizes":[],"default_left":[0,0,0,0,0,0,0,0,0,0,0,0,0,0,0,0,0,0,0,0,0,0,0,0,0,0,0,0,0],"id":48,"left_children":[1,3,5,7,9,11,13,-1,-1,15,17,19,-1,-1,-1,21,-1,23,25,27,-1,-1,-1,-1,-1,-1,-1,-1,-1],"loss_changes":[2.2112563E-1,8.3237655E-2,7.841562E-2,1.7916411E-2,5.991125E-2,1.9569978E-2,3.525451E-2,0E0,0E0,4.9559355E-2,8.5644424E-5,8.997366E-3,0E0,0E0,0E0,2.2635212E-2,0E0,3.1311065E-4,7.4105263E-3,1.8159524E-3,0E0,0E0,0E0,0E0,0E0,0E0,0E0,0E0,0E0],"parents":[2147483647,0,0,1,1,2,2,3,3,4,4,5,5,6,6,9,9,10,10,11,11,15,15,17,17,18,18,19,19],"right_children":[2,4,6,8,10,12,14,-1,-1,16,18,20,-1,-1,-1,22,-1,24,26,28,-1,-1,-1,-1,-1,-1,-1,-1,-1],"split_conditions":[8E-1,6E-1,5E-1,5E-1,5E-1,1E0,1E0,3.7966997E-3,9.254965E-3,1E0,1E0,6E-1,-4.6824967E-3,-2.3623772E-3,-1.118942E-2,5E-1,6.1800643E-3,5E-1,5E-1,1E0,-0E0,-8.6058705E-4,4.6589035E-3,3.5554536E-3,1.2265169E-3,-1.453337E-4,2.3738693E-3,-9.026003E-4,-1.962038E-3],"split_indices":[0,1,3,2,2,5,0,0,0,5,5,1,0,0,0,3,0,3,3,0,0,0,0,0,0,0,0,0,0],"split_type":[0,0,0,0,0,0,0,0,0,0,0,0,0,0,0,0,0,0,0,0,0,0,0,0,0,0,0,0,0],"sum_hessian":[1.5602916E2,8.807809E1,6.795107E1,1.3080125E1,7.499796E1,6.1508408E1,6.442667E0,9.878819E0,3.2013052E0,4.5784214E1,2.921375E1,5.6571766E1,4.936644E0,3.0975928E0,3.3450742E0,4.2995678E1,2.788536E0,1.849845E1,1.07153015E1,4.363198E1,1.2939783E1,4.125677E1,1.7389075E0,1.44998665E1,3.9985833E0,1.7217482E0,8.993553E0,2.039919E1,2.323279E1],"tree_param":{"num_deleted":"0","num_feature":"6","num_nodes":"29","size_leaf_vector":"1"}},{"base_weights":[7.462341E-5,3.1948145E-2,-4.051475E-2,1.0267718E-1,1.8837728E-2,-2.8858673E-2,-1.4244312E-1,3.6103074E-3,8.836913E-3,-1.5974595E-3,2.6226004E-3,-2.2569606E-2,-4.4566467E-3,-2.2504667E-3,-1.0736035E-2,-1.0748825E-2,5.8913743E-3,-3.3159796E-2,-2.6830757E-4,-8.179348E-4,4.4402513E-3,-8.579953E-4,-2.726356E-3],"categories":[],"categories_nodes":[],"categories_segments":[],"categories_sizes":[],"default_left":[0,0,0,0,0,0,0,0,0,0,0,0,0,0,0,0,0,0,0,0,0,0,0],"id":49,"left_children":[1,3,5,7,9,11,13,-1,-1,15,-1,17,-1,-1,-1,19,-1,21,-1,-1,-1,-1,-1],"loss_changes":[2.0156157E-1,7.546633E-2,7.179644E-2,1.5985876E-2,5.4124556E-2,1.7554656E-2,3.1899974E-2,0E0,0E0,4.4899117E-2,0E0,8.375363E-3,0E0,0E0,0E0,2.0583298E-2,0E0,7.6864585E-3,0E0,0E0,0E0,0E0,0E0],"parents":[2147483647,0,0,1,1,2,2,3,3,4,4,5,5,6,6,9,9,11,11,15,15,17,17],"right_children":[2,4,6,8,10,12,14,-1,-1,16,-1,18,-1,-1,-1,20,-1,22,-1,-1,-1,-1,-1],"split_conditions":[8E-1,6E-1,5E-1,5E-1,5E-1,1E0,1E0,3.6103074E-3,8.836913E-3,1E0,2.6226004E-3,1E0,-4.4566467E-3,-2.2504667E-3,-1.0736035E-2,5E-1,5.8913743E-3,6E-1,-2.6830757E-4,-8.179348E-4,4.4402513E-3,-8.579953E-4,-2.726356E-3],"split_indices":[0,1,3,2,2,5,0,0,0,5,0,0,0,0,0,3,0,1,0,0,0,0,0],"split_type":[0,0,0,0,0,0,0,0,0,0,0,0,0,0,0,0,0,0,0,0,0,0,0],"sum_hessian":[1.5593027E2,8.804473E1,6.7885544E1,1.3064811E1,7.497992E1,6.147445E1,6.4110928E0,9.874675E0,3.1901355E0,4.576544E1,2.921448E1,5.6541817E1,4.9326334E0,3.0941176E0,3.3169749E0,4.2981503E1,2.7839396E0,3.314135E1,2.3400465E1,4.1243248E1,1.7382531E0,2.0392065E1,1.2749285E1],"tree_param":{"num_deleted":"0","num_feature":"6","num_nodes":"23","size_leaf_vector":"1"}}]},"name":"gbtree"},"learner_model_param":{"base_score":"[3.4735414E-1]","boost_from_average":"1","num_class":"0","num_feature":"6","num_target":"1"},"objective":{"name":"binary:logistic","reg_loss_param":{"scale_pos_weight":"1"}}},"version":[3,2,0]}